95 95
6.250000000000000000e+00 1.680358555299103426e-02 -6.006724030863742625e-01 1.000485213627521075e+00 -2.090207625346331088e+00 3.397082515673032876e+00 1.025883743289044604e-71 3.059123726757133429e+169 1.483371872441627903e-76 9.964344617191377552e-48 5.401690508267111028e-67 1.282832148227504806e-153 5.548916331839910272e-48 1.479007371465708401e-76 1.281958123923068342e-153 3.007371568815386997e-67 1.892426271269197734e-52 3.007371327603656416e-67 1.968045792150737605e-62 1.967572868366191171e-62 5.052146810252151707e-38 1.086222925776494293e-71 3.888818019135869616e-33 1.866828972298817793e-72 4.581138549751899419e-72 3.003002445948072559e-67 3.061335088534300575e+169 1.085678014707338688e-42 1.573107045871710997e-76 5.940752994828262516e-38 3.629531340501131777e-43 3.630407153181239843e-43 3.633910399340217441e-43 2.899328067864072623e-57 8.028651770395980225e-63 1.967580330245861804e-62 1.971851481128488912e-62 3.059860895710076297e+169 2.110579448981765404e-52 4.914075730379644879e-62 1.144147415268152226e-71 3.631289805859195635e-43 3.630413995458692967e-43 3.629538183918082125e-43 1.129803994079513119e-42 2.003228716667597954e-76 5.935013416791150210e-38 1.223445021478720920e-67 3.006647345722663257e-67 4.588867920609475049e-72 3.059115133264413677e+169 3.696549349098707229e-57 7.123017204236738509e-67 7.111655711314076226e-38 1.968531697538642273e-62 3.008809344885214100e-67 3.008809344885892095e-67 4.081346911321391422e-33 1.580584329714328023e-153 3.505136651278472056e-33 1.243920345199737448e-258 3.058099402164493365e-57 4.418407094050983385e-62 5.401673517900903504e-67 7.121444817113963154e-67 4.649216184903907410e-62 1.969477553334676690e-62 1.656041818706139604e-153 5.401687656341487216e-67 2.487023989011047822e-91 1.506293401907056105e-153 8.017969419612108624e-63 1.879792040641874209e-153 5.401670665888924596e-67 2.483426120732606393e-91 1.207668431206870025e-153 3.503812481569865966e+183 1.878628893580461012e-153 1.804045486251093641e-153 5.595522098870437533e-38 1.996826314230401534e-52 7.094129698339809466e-67 1.243921353167006771e-258 1.656336516923363267e-153 1.805211990008159578e-153 1.805211990077349456e-153 3.365545755162661279e-57 2.205632902016066288e-52 2.205636069530840123e-52 1.506582370163512068e-153 1.779133384823045789e-52 7.679500254134859099e-43 3.298296642435619123e-33 1.243926288096002757e-258 1.655170012992236244e-153 1.207960910589902620e-153
6.500000000000000000e+00 1.529521713005547144e-02 -6.555044573803346930e-01 1.100280242476597392e+00 -2.084916302077911343e+00 3.038632271270392593e+00 1.580877947271470341e-153 3.192647799042744983e-57 3.206217107671356351e-57 3.206229224015804469e-57 1.243919341152994700e-258 1.283706269605340992e-153 1.506291125802029329e-153 3.054715320390985955e+169 1.656312728976241816e-153 1.971847605835524551e-62 8.017969418199099747e-63 3.003002346458899508e-67 3.003005176359290295e-67 3.055432412410986675e+169 1.028740581205686620e-71 6.371033657661789630e-67 3.057592015585871128e+169 1.207938220651076308e-153 5.621566030259771351e-62 9.434920157082389213e-43 1.208812244938154359e-153 4.581129560484824803e-72 1.208787434227289258e-153 4.585551279247283831e-72 1.565374353512841289e-76 3.005192304825313738e-67 1.025885470299354840e-71 1.025881125449786180e-71 1.580583094605887795e-153 1.804624754963074889e-153 1.804916096484646077e-153 2.714720225852680432e-57 1.788024580153569202e-52 1.788021387746729804e-52 1.243921349229809326e-258 1.879790845127607738e-153 1.730332689155549775e-153 1.730041347720669434e-153 9.692891832709914650e-72 9.692865890480452102e-72 9.692831312071188252e-72 4.591095331201583874e-72 9.692874794298311019e-72 6.376829226199838044e-67 9.692822974413064867e-72 4.179118874071160497e-62 1.505999784332820082e-153 5.032841739156173996e-38 6.123811075957338968e-62 6.123811032041034033e-62 4.581112572338174968e-72 4.581116891859675729e-72 4.591065758034372396e-72 5.639893985664096246e-38 2.108132453704612195e-52 1.830167995371807940e-76 1.866828959713811621e-72 4.585551564413227461e-72 4.586652675904774136e-72 3.058383744849175348e+169 5.052244709902677561e-38 2.579518097115800813e-57 1.433727837128389303e-153 8.948783556765388902e-67 1.731478805682264143e-153 3.059869275638428665e+169 6.823736506175780940e+212 1.209415341627723977e-153 1.892429420573013436e-52 4.406137011122150392e-62 4.406144516412379838e-62 1.804625796029186507e-153 1.582622581583983493e-153 1.879499503796783811e-153 4.142334328997294253e-62 1.829278123965355084e-258 1.880956210901384876e-153 1.581748557262112568e-153 1.730041347581679179e-153 1.126676942400153516e-42 1.283978361827617042e-153 3.061334841796825536e+169 1.655438682374619919e-153 3.005900020965415006e-67 1.243923314422580018e-258 3.005900020878547954e-67 1.082481717066880527e-71 8.017969292827638962e-63 5.620548552393128420e-38 7.265952939561976968e-43
6.750000000000000000e+00 1.415329254999665026e-02 -7.127181346038220511e-01 1.191907418500766092e+00 -2.057996251222796946e+00 2.625115088431114074e+00 1.794917870210192354e-52 4.589960377625419354e-72 4.581121260545980605e-72 4.581121260547781245e-72 1.658427930848732802e-76 3.505888967573306324e-33 5.349561988242236762e-38 1.730737839932735814e-76 1.313057064495180665e-71 1.208251114076422438e-153 7.110409867894992319e-38 2.486429406968975684e-91 2.484023025322673159e-91 7.489467614877476791e-67 1.869592537851913180e-72 3.005911538633613237e-67 3.006635992960926813e-67 3.054706883830626520e+169 3.535995545434466918e-57 5.638587549267921535e-62 1.084977384174133051e-42 1.969956047189592769e-62 1.971857015958877770e-62 1.971857015959210262e-62 4.468037532968766932e-33 2.422162774739720738e-52 6.523908535971889801e-38 8.017969383672644604e-63 1.970436390003167078e-62 1.968995370658278389e-62 3.060586446783806766e+169 4.181967442692458870e-62 1.177119184442340627e-47 1.177119217037001129e-47 1.289477067384265273e-57 1.290718024546580573e-57 1.968526141591791003e-62 3.119134255512827984e-33 2.175614758165973174e-76 1.586854043095474024e-47 1.866828955447644580e-72 4.589951726026052992e-72 4.583353676382185744e-72 3.058389514705086460e+169 6.776332187674575819e+174 3.166960789842390348e-321 6.900472231895815960e-310 6.900472231895815960e-310 6.900376852146605911e-310 6.900376852071507933e-310 6.900376852026053893e-310 6.900376852176249850e-310 6.900376852079412983e-310 6.900376852150558436e-310 6.900376852126843285e-310 6.900376852055697832e-310 6.900376852144629648e-310 6.900376852002338742e-310 6.900376852142653386e-310 6.900376852008267530e-310 6.900376852190083688e-310 6.900376852033958944e-310 6.900376852041863994e-310 6.900376852069531670e-310 6.900376852124867023e-310 6.900376852018148843e-310 6.900376852138700861e-310 6.900376852174273587e-310 6.900376852184154900e-310 6.900376852014196318e-310 6.900376852031982681e-310 6.900376852152534699e-310 6.900376852016172581e-310 6.900376852053721570e-310 6.900376852004315005e-310 6.900385232243034110e-310 6.900385232136315930e-310 6.900385232246986635e-310 6.900472946915918924e-310 6.900385232286511887e-310 6.900385232302321987e-310 6.900385232197580071e-310 6.900385232199556333e-310 6.900385232203508858e-310 6.900385232152126031e-310 6.900385232163983607e-310 6.900376073678197455e-310 6.900376073663968365e-310 6.900376073516934429e-310 6.900376073668711395e-310
7.000000000000000000e+00 1.379370493868253139e-02 -7.711773008809975627e-01 1.275192902149951291e+00 -2.011206782618917721e+00 2.179018632595497440e+00 6.900385232250939160e-310 6.900385232132363405e-310 6.900385232130387143e-310 6.900385232237105322e-310 6.900385232205485121e-310 6.900385232217342696e-310 6.900385232122482092e-310 6.900385232274654311e-310 6.900385232158054819e-310 6.900385232266749261e-310 6.900385232114577042e-310 6.900385232260820473e-310 6.900385232248962898e-310 6.900385232270701786e-310 6.900385232134339668e-310 6.900385232296393200e-310 6.900385232120505830e-310 6.900385232138292193e-310 6.900385232282559362e-310 6.900385232160031081e-310 6.900385232140268456e-310 6.900385232239081585e-310 -1.178509826260269407e+251 2.420921664622108066e-322 9.149623038969945093e-316 6.900472231866567273e-310 5.044721684089307020e-232 9.119467445836637106e-316 1.248997952686671264e-320 3.241070636718577330e-321 0.000000000000000000e+00 6.900472872081178932e-310 2.989097157339541592e-321 nan 1.806665139896349397e-153 1.483371856917200933e-76 4.016412324811175386e-57 2.380951915199046559e-38 2.380951917242651331e-38 1.657186730964987364e-153 1.243918383355126676e-258 2.101231234969608516e-52 4.587757820247719388e-72 1.655996536664351899e-153 4.588863249688694694e-72 9.692883261794785545e-72 1.283997513966753514e-153 7.641319703555938728e-43 7.679486382799223556e-43 7.679479567249216007e-43 1.243920345259545819e-258 1.357712684258223522e-153 1.805213128095369655e-153 1.805213128043002414e-153 3.524842715984649968e-57 2.310036143074039881e-52 1.513905286725001318e-47 1.281958123923066222e-153 1.356541628204412391e-153 1.431125035568510367e-153 1.471652783098783313e-76 1.479012673550564401e-76 1.479016626874793419e-76 1.243927307678770972e-258 1.284294642737092563e-153 1.433461457222242109e-153 1.433461457291703320e-153 4.261261671932916951e-33 1.805499820489911490e-153 1.358290814883335979e-153 1.358290814970094659e-153 9.644623679448478550e-72 1.829275138948651682e-258 4.586673980828458155e-72 9.692900635333394710e-72 1.866828976563766563e-72 6.352339249829136052e-67 1.743806319994002427e-76 1.165963458718473967e-47 1.586854034873941280e-47 1.657205989000104774e-153 1.723676806291795760e-47 1.654876395609154218e-153 1.506000922263272372e-153 1.021060362266374384e-71 1.025881142317303090e-71 6.723225973889530016e-67 1.243921345353183692e-258 1.432581742707637742e-153 1.788019769784998331e-52
7.250000000000000000e+00 1.478133641610863448e-02 -8.292265929823162685e-01 1.351125763968949345e+00 -1.946194973662738414e+00 1.723461498433316086e+00 6.723214565856311526e-67 1.029846007393191584e-71 1.021060362266473917e-71 1.690920848967237685e-52 1.284580293753417659e-153 1.039945730054643123e-42 1.880082186544507773e-153 1.804916096328424861e-153 9.644623679313079688e-72 4.646447614672227647e-33 4.582243626226870628e-72 1.969004341296881093e-62 1.507145892036545440e-153 1.243919371894604602e-258 1.573105016358528997e-320 3.873474663395372906e-321 6.134337509152395388e-314 6.900472974842880742e-310 9.152038822351850453e-316 0.000000000000000000e+00 0.000000000000000000e+00 0.000000000000000000e+00 0.000000000000000000e+00 0.000000000000000000e+00 0.000000000000000000e+00 0.000000000000000000e+00 0.000000000000000000e+00 0.000000000000000000e+00 6.387299880684208214e-314 6.900472979183543880e-310 9.152088624168951250e-316 6.324059288789386299e-314 6.900472979112398427e-310 9.151880721345181254e-316 0.000000000000000000e+00 0.000000000000000000e+00 0.000000000000000000e+00 0.000000000000000000e+00 0.000000000000000000e+00 0.000000000000000000e+00 0.000000000000000000e+00 0.000000000000000000e+00 0.000000000000000000e+00 0.000000000000000000e+00 0.000000000000000000e+00 0.000000000000000000e+00 0.000000000000000000e+00 0.000000000000000000e+00 0.000000000000000000e+00 0.000000000000000000e+00 0.000000000000000000e+00 0.000000000000000000e+00 0.000000000000000000e+00 0.000000000000000000e+00 0.000000000000000000e+00 6.829984031853011952e-314 6.900472974959480234e-310 9.152163722147119120e-316 7.019705809513740279e-314 6.900472974963432760e-310 9.151985858514616271e-316 6.956465217618918365e-314 6.900472979122279740e-310 9.152352652850088812e-316 0.000000000000000000e+00 0.000000000000000000e+00 0.000000000000000000e+00 0.000000000000000000e+00 0.000000000000000000e+00 0.000000000000000000e+00 5.248969208791050497e-314 6.900472946856631046e-310 9.152517868402058125e-316 0.000000000000000000e+00 0.000000000000000000e+00 0.000000000000000000e+00 1.101946512043165597e+223 6.900470793083770928e-310 6.900382189423549957e-310 0.000000000000000000e+00 0.000000000000000000e+00 0.000000000000000000e+00 7.525630552577365932e-314 6.900472979088683276e-310 9.152581899309759151e-316 0.000000000000000000e+00 0.000000000000000000e+00 0.000000000000000000e+00 0.000000000000000000e+00 0.000000000000000000e+00
7.500000000000000000e+00 1.716365006151548619e-02 -8.858544086056739930e-01 1.419931062241355457e+00 -1.860031589681888864e+00 1.289609590648755688e+00 0.000000000000000000e+00 7.715352332214356843e-314 6.900472947002874478e-310 9.152651463752693598e-316 0.000000000000000000e+00 0.000000000000000000e+00 0.000000000000000000e+00 0.000000000000000000e+00 0.000000000000000000e+00 0.000000000000000000e+00 0.000000000000000000e+00 0.000000000000000000e+00 0.000000000000000000e+00 0.000000000000000000e+00 0.000000000000000000e+00 0.000000000000000000e+00 3.697118626486449988e-57 4.166455591379232107e-320 9.151985068009582925e-316 6.900472231864986263e-310 0.000000000000000000e+00 0.000000000000000000e+00 6.900376852026053893e-310 6.900376852176249850e-310 6.900376852079412983e-310 6.900376852150558436e-310 6.900376852126843285e-310 6.900376852055697832e-310 6.900376852144629648e-310 6.900376852002338742e-310 6.900376852142653386e-310 6.900376852008267530e-310 6.900376852190083688e-310 6.900376852033958944e-310 6.900376852041863994e-310 6.900376852069531670e-310 6.900376852124867023e-310 6.900376852018148843e-310 6.900376852138700861e-310 6.900376852174273587e-310 6.900376852184154900e-310 6.900376852014196318e-310 6.900376852031982681e-310 6.900376852152534699e-310 6.900376852016172581e-310 6.900376852053721570e-310 6.900376852004315005e-310 6.900385232243034110e-310 6.900385232136315930e-310 6.900385232246986635e-310 6.900472946915918924e-310 6.900385232286511887e-310 6.900385232302321987e-310 6.900385232197580071e-310 6.900385232199556333e-310 6.900385232203508858e-310 6.900385232152126031e-310 6.900385232163983607e-310 6.900376073678197455e-310 6.900376073663968365e-310 6.900376073516934429e-310 6.900376073668711395e-310 6.900385232258844211e-310 6.900385232276630574e-310 6.900385232241057847e-310 6.900385232219318959e-310 6.900385232154102294e-310 6.900385232112600779e-310 6.900385232250939160e-310 6.900385232132363405e-310 6.900385232130387143e-310 6.900385232237105322e-310 6.900385232205485121e-310 6.900385232217342696e-310 6.900385232122482092e-310 6.900385232274654311e-310 6.900385232158054819e-310 6.900385232266749261e-310 6.900385232114577042e-310 6.900385232260820473e-310 6.900385232248962898e-310 6.900385232270701786e-310 6.900385232134339668e-310 6.900385232296393200e-310 6.900385232120505830e-310 6.900385232138292193e-310 6.900385232282559362e-310 6.900385232160031081e-310 6.900385232140268456e-310 6.900385232239081585e-310
7.750000000000000000e+00 2.065158833925580598e-02 -9.413009815507630274e-01 1.479530964463800391e+00 -1.747388322278819572e+00 9.053200226925953720e-01 6.900385232213390171e-310 6.900385232280583099e-310 6.900385232231176534e-310 6.900385232223271484e-310 6.900385232308250775e-310 6.900385232167936132e-310 6.900385232300345725e-310 6.900385232126434618e-310 6.900385232209437646e-310 6.900385232169912394e-310 6.900385232292440675e-310 6.900385232146197243e-310 6.900385232288488149e-310 6.900385232284535624e-310 6.900385232294416937e-310 6.900385232110624517e-310 6.900376107962400752e-310 6.900376107960029236e-310 6.900385232306274513e-310 6.900385232229200272e-310 6.900385232201532596e-310 6.900385232245010373e-310 6.900385232211413909e-310 6.900385232162007344e-310 6.900385232225247747e-310 6.900385232118529567e-310 6.900385232116553305e-310 6.900385232252915423e-310 6.900385232298369462e-310 6.900385232148173506e-310 6.900376396532310649e-310 6.900376396516500549e-310 6.900376396558002063e-310 6.900376396575788426e-310 6.900376396601479840e-310 6.900376396482904085e-310 6.900376396530334387e-310 6.900376396492785398e-310 6.900376396652862667e-310 6.900376396650886404e-310 6.900376396496737923e-310 6.900376396473022772e-310 6.900376396508595498e-310 6.900376396599503577e-310 6.900376396569859638e-310 6.900376396648910142e-310 6.900376396646933879e-310 6.900376396504642973e-310 6.900376396654838929e-310 6.900376396476975297e-310 6.900376396609384890e-310 6.900376396662743980e-310 6.900376396512548023e-310 6.900376396577764689e-310 6.900376396550097013e-310 6.900376396467093984e-310 6.900376396490809135e-310 6.900376396510571761e-310 6.900376396561954588e-310 6.900376396500690448e-310 6.900376396613337415e-310 6.900376396471046509e-310 6.900376396617289940e-310 6.900376396524405599e-310 6.900376396502666711e-310 6.900376396498714185e-310 6.900376396478951560e-310 6.900376396623218728e-310 6.900376396518476811e-310 6.900376396534286912e-310 6.900376396494761660e-310 6.900376396544168225e-310 6.900376396514524286e-310 6.900376396480927822e-310 6.900376396474999034e-310 6.900376396619266203e-310 6.900376396506619236e-310 6.900376396554049538e-310 6.900376396488832872e-310 6.900376396542191962e-310 6.900376396538239437e-310 6.900376396611361153e-310 6.900472946915918924e-310 6.900376396536263174e-310 6.900376396621242466e-310 6.900376396522429336e-310 6.900376396486856610e-310 6.900376396603456102e-310 6.900376396660767717e-310 6.900376396644957617e-310
8.000000000000000000e+00 2.608621456128027566e-02 -9.948253673183490298e-01 1.529095203350795185e+00 -1.618038182093535449e+00 5.348655936900588159e-01 6.900376344439609962e-310 6.900376344419847336e-310 6.900376344283485218e-310 6.900376344380322084e-310 6.900376344315105419e-310 6.900376344429728649e-310 6.900376344374393297e-310 6.900376344406013498e-310 6.900376344334868045e-310 6.900376344423799861e-310 6.900376344356606933e-310 6.900376344342773095e-310 6.900376344427752386e-310 6.900376344253841279e-310 6.900376344421823599e-310 6.900376344441586224e-310 6.900376344449491275e-310 6.900376344445538750e-310 6.900376344321034207e-310 6.900376344366488246e-310 6.900376344447515012e-310 6.900376344352654408e-310 6.900376344326962995e-310 6.900376344259770067e-310 6.900376344305224106e-310 6.900376344451467537e-310 6.900376344364511984e-310 6.900376344271627642e-310 6.900376344287437743e-310 6.900376344269651380e-310 6.900376344390203397e-310 6.900376344273603905e-310 6.900376344435657437e-310 6.900376344425776124e-310 6.900376344388227135e-310 6.900376344324986732e-310 6.900376344281508955e-310 6.900376344285461480e-310 6.900376344431704912e-310 6.900376344338820570e-310 6.900376344336844308e-310 6.900376344309176631e-310 6.900376344263722592e-310 6.900376344307200369e-310 6.900376344382298347e-310 6.900376344261746329e-310 6.900376344328939257e-310 6.900376344311152894e-310 6.900376344398108448e-310 6.900376344346725620e-310 6.900376344332891782e-310 6.900376344344749358e-310 6.900376344443562487e-310 6.900376344303247844e-310 6.900376344279532693e-310 6.900376344362535721e-310 6.900376344299295318e-310 6.900376344330915520e-310 6.900376344437633699e-310 6.900376344293366531e-310 6.900376344384274610e-310 6.900376344386250872e-310 6.900376344392179660e-310 6.900376344402060973e-310 6.900376344370440771e-310 6.900376344323010469e-310 6.900376344319057944e-310 6.900376344360559459e-310 6.900376344433681174e-310 6.900376344313129157e-310 6.900376344267675117e-310 6.900376344404037235e-310 6.900376344350678146e-310 6.900376344275580167e-310 6.900376344394155922e-310 6.900376344317081682e-310 6.900376344265698855e-310 6.900376344358583196e-310 6.900376344340796833e-310 6.900376344295342793e-310 6.900376344301271581e-310 6.900376344396132185e-310 0.000000000000000000e+00 0.000000000000000000e+00 0.000000000000000000e+00 0.000000000000000000e+00 0.000000000000000000e+00 1.427849716481202513e-321 6.900472231878424849e-310 6.900472231878424849e-310
8.250000000000000000e+00 3.250143371083093896e-02 -1.048057855591554732e+00 1.564705686262420459e+00 -1.465733414377274224e+00 2.022307698297108880e-01 6.900472231875262829e-310 6.900472231875262829e-310 0.000000000000000000e+00 0.000000000000000000e+00 0.000000000000000000e+00 0.000000000000000000e+00 0.000000000000000000e+00 0.000000000000000000e+00 1.448254627654445995e-319 0.000000000000000000e+00 0.000000000000000000e+00 0.000000000000000000e+00 0.000000000000000000e+00 0.000000000000000000e+00 0.000000000000000000e+00 0.000000000000000000e+00 0.000000000000000000e+00 0.000000000000000000e+00 5.467322155422024120e-310 0.000000000000000000e+00 0.000000000000000000e+00 0.000000000000000000e+00 0.000000000000000000e+00 0.000000000000000000e+00 0.000000000000000000e+00 0.000000000000000000e+00 1.177852499685531761e-320 6.165939260098756871e-321 0.000000000000000000e+00 6.900472872081178932e-310 5.918906437178133599e-321 nan 1.207380360696939230e-153 1.483371872319658407e-76 7.493937819306830049e-67 4.588875832605971343e-72 3.007365668236045189e-67 1.506271881120756056e-153 1.243924310715606132e-258 1.506293401802931857e-153 3.046922482718786851e-57 1.996819972856289013e-52 8.576276479417380171e-43 1.209122765219939733e-153 1.208831520719332662e-153 1.282832245248604060e-153 9.644623680103758609e-72 4.002775160665074145e-57 1.508019911827356149e-153 3.670575372494771086e-57 1.507437229044489814e-153 3.005911340433878953e-67 1.581704470787367959e-153 3.005186886108584209e-67 8.127874626892748175e-43 3.002288827720670853e-67 8.127915653834309150e-43 6.816634162248934459e-38 8.127895097994281483e-43 3.004456531288791924e-67 8.127867731163057197e-43 1.369433986264140582e-71 5.326706282215473187e-38 1.655544096095872941e-47 1.806373941676588646e-153 7.712616771079296432e-43 1.357709270013749795e-153 3.056181099149935302e+169 1.358874635805157739e-153 3.629527933865217395e-43 1.243925299556526217e-258 4.584437549271659671e-72 4.583336437780104952e-72 3.056175351786532383e+169 7.493937863349911287e-67 3.059312632086485437e-57 5.055688541282316307e-38 1.291646614702816472e-57 1.970898178924492351e-62 1.970898178924495806e-62 9.055962397876650559e-43 2.003228721975702537e-76 1.129818921637422968e-42 8.017969419400404827e-63 1.969475712854901658e-62 1.968528010683291774e-62 3.056175351786535734e+169 7.493937840810523409e-67 8.611199437967849795e-43 3.505888979232635034e-33
8.500000000000000000e+00 4.066052886701682079e-02 -1.100016043228997153e+00 1.586876591208251863e+00 -1.303199290008836053e+00 -1.303837250686861737e-01 5.254656379443499937e-58 1.291334253658940428e-57 1.290409304647670467e-57 3.058383756096632795e+169 1.723699596268182243e-47 5.151464924137056922e-62 1.690512992523509337e-52 2.380947797550429824e-38 5.378468340498123807e-62 1.581437940098286293e-153 1.892415076547106620e-52 1.580563946912471261e-153 3.058377795869754310e+169 1.580563955872961641e-153 8.469020979395798314e-53 1.243925314761584055e-258 8.460912142172528873e-53 8.460856910361899428e-53 3.059860828225684240e+169 1.199418907528046313e-71 5.151465025504285697e-62 5.151464938626364534e-62 4.586661378104889986e-72 9.958048524832536300e-43 4.277013273416371703e-33 1.313499226192384791e-71 3.443691573777549974e-53 8.466998279677423337e-53 8.462919964385399037e-53 3.057649522117220759e+169 4.908378418937177201e-62 7.489591071240401726e-67 1.142820903204407002e-71 4.585555948529837897e-72 5.548932074135693500e-48 8.576317426590356676e-43 8.456770751417053380e-53 1.483371862126647463e-76 1.483371841476094165e-76 2.487620911110355043e-91 2.487639629450572013e-91 4.163039465124940554e-62 3.005189924319923063e-67 5.914449028807675931e-38 1.358561769191850684e-153 3.843466007493849105e-57 1.732061497512521035e-153 1.282249562344587340e-153 4.163043159837183142e-62 1.788011835466895594e-52 5.032810399135540159e-38 1.431128352704511686e-153 1.356836383900515699e-153 1.878920235050003065e-153 7.433462420114685439e-67 4.892306370498905718e-62 4.892321236301676338e-62 1.243927296003463940e-258 1.731208989425957312e-153 1.433458043151698042e-153 1.657499606557179524e-153 1.738092428177151713e-76 1.139083189640995227e-71 1.139076277332647206e-71 1.581750736450097830e-153 1.357417928665565601e-153 1.356835245691748768e-153 3.474488368096938136e-33 8.127922604996452026e-43 1.892423073099501610e-52 1.243925315047884764e-258 1.879501779797687134e-153 1.804335689720116200e-153 1.508331653863329820e-153 6.723259910570119072e-67 4.588863533618688633e-72 1.575631614110024184e-153 3.055417870549809524e+169 1.728565391351498536e-153 1.207661602874422539e-153 1.207661602874354706e-153 1.483371882753814761e-76 2.382658328916212245e-38 9.693130120273168708e-39 2.382680749654097451e-38 3.059852000118190497e+169 1.290598280066504223e-319 1.036055659329094003e-320 6.900472231927436161e-310 6.900472231927436161e-310
8.750000000000000000e+00 4.989104047947635207e-02 -1.151170124204037748e+00 1.594302299497142306e+00 -1.129610479251325073e+00 -4.428212827425176967e-01 6.900376852126843285e-310 6.900376852055697832e-310 6.900376852144629648e-310 6.900376852002338742e-310 6.900376852142653386e-310 6.900376852008267530e-310 6.900376852190083688e-310 6.900376852033958944e-310 6.900376852041863994e-310 6.900376852069531670e-310 6.900376852124867023e-310 6.900376852018148843e-310 6.900376852138700861e-310 6.900376852174273587e-310 6.900376852184154900e-310 6.900376852014196318e-310 6.900376852031982681e-310 6.900376852152534699e-310 6.900376852016172581e-310 6.900376852053721570e-310 6.900376852004315005e-310 6.900385232243034110e-310 6.900385232136315930e-310 6.900385232246986635e-310 6.900472946915918924e-310 6.900385232286511887e-310 6.900385232302321987e-310 6.900385232197580071e-310 6.900385232199556333e-310 6.900385232203508858e-310 6.900385232152126031e-310 6.900385232163983607e-310 6.900376073678197455e-310 6.900376073663968365e-310 6.900376073516934429e-310 6.900376073668711395e-310 6.900385232258844211e-310 6.900385232276630574e-310 6.900385232241057847e-310 6.900385232219318959e-310 6.900385232154102294e-310 6.900385232112600779e-310 6.900385232250939160e-310 6.900385232132363405e-310 6.900385232130387143e-310 6.900385232237105322e-310 6.900385232205485121e-310 6.900385232217342696e-310 6.900385232122482092e-310 6.900385232274654311e-310 6.900385232158054819e-310 6.900385232266749261e-310 6.900385232114577042e-310 6.900385232260820473e-310 6.900385232248962898e-310 6.900385232270701786e-310 6.900385232134339668e-310 6.900385232296393200e-310 6.900385232120505830e-310 6.900385232138292193e-310 6.900385232282559362e-310 6.900385232160031081e-310 6.900385232140268456e-310 6.900385232239081585e-310 6.900385232256867948e-310 6.900385232124458355e-310 6.900385232235129060e-310 6.900385232290464412e-310 6.900385232144220981e-310 6.900385232128410880e-310 6.900385232213390171e-310 6.900385232280583099e-310 6.900385232231176534e-310 6.900385232223271484e-310 6.900385232308250775e-310 6.900385232167936132e-310 6.900385232300345725e-310 6.900385232126434618e-310 6.900385232209437646e-310 6.900385232169912394e-310 6.900385232292440675e-310 6.900385232146197243e-310 6.900385232288488149e-310 6.900385232284535624e-310 6.900385232294416937e-310 6.900385232110624517e-310 6.900376107962400752e-310 6.900376107960029236e-310 6.900385232306274513e-310 6.900385232229200272e-310
9.000000000000000000e+00 6.043010498363066141e-02 -1.200580104670839310e+00 1.588107198510200657e+00 -9.506892131400324075e-01 -7.311994373061950769e-01 6.900385232116553305e-310 6.900385232252915423e-310 6.900385232298369462e-310 6.900385232148173506e-310 6.900376396532310649e-310 6.900376396516500549e-310 6.900376396558002063e-310 6.900376396575788426e-310 6.900376396601479840e-310 6.900376396482904085e-310 6.900376396530334387e-310 6.900376396492785398e-310 6.900376396652862667e-310 6.900376396650886404e-310 6.900376396496737923e-310 6.900376396473022772e-310 6.900376396508595498e-310 6.900376396599503577e-310 6.900376396569859638e-310 6.900376396648910142e-310 6.900376396646933879e-310 6.900376396504642973e-310 6.900376396654838929e-310 6.900376396476975297e-310 6.900376396609384890e-310 6.900376396662743980e-310 6.900376396512548023e-310 6.900376396577764689e-310 6.900376396550097013e-310 6.900376396467093984e-310 6.900376396490809135e-310 6.900376396510571761e-310 6.900376396561954588e-310 6.900376396500690448e-310 6.900376396613337415e-310 6.900376396471046509e-310 6.900376396617289940e-310 6.900376396524405599e-310 6.900376396502666711e-310 6.900376396498714185e-310 6.900376396478951560e-310 6.900376396623218728e-310 6.900376396518476811e-310 6.900376396534286912e-310 6.900376396494761660e-310 6.900376396544168225e-310 6.900376396514524286e-310 6.900376396480927822e-310 6.900376396474999034e-310 6.900376396619266203e-310 6.900376396506619236e-310 6.900376396554049538e-310 6.900376396488832872e-310 6.900376396542191962e-310 6.900376396538239437e-310 6.900376396611361153e-310 6.900472946915918924e-310 6.900376396536263174e-310 6.900376396621242466e-310 6.900376396522429336e-310 6.900376396486856610e-310 6.900376396603456102e-310 6.900376396660767717e-310 6.900376396644957617e-310 6.900376396484880347e-310 6.900376396656815192e-310 6.900376396579740951e-310 6.900376396526381862e-310 6.900376396639028829e-310 6.900376396556025800e-310 6.900376344439609962e-310 6.900376344419847336e-310 6.900376344283485218e-310 6.900376344380322084e-310 6.900376344315105419e-310 6.900376344429728649e-310 6.900376344374393297e-310 6.900376344406013498e-310 6.900376344334868045e-310 6.900376344423799861e-310 6.900376344356606933e-310 6.900376344342773095e-310 6.900376344427752386e-310 6.900376344253841279e-310 6.900376344421823599e-310 6.900376344441586224e-310 6.900376344449491275e-310 6.900376344445538750e-310 6.900376344321034207e-310 6.900376344366488246e-310
9.250000000000000000e+00 7.252818586811259072e-02 -1.247376004193481602e+00 1.569252623218044373e+00 -7.721889914557978907e-01 -9.900195459976609547e-01 6.900376344364511984e-310 6.900376344271627642e-310 6.900376344287437743e-310 6.900376344269651380e-310 6.900376344390203397e-310 6.900376344273603905e-310 6.900376344435657437e-310 6.900376344425776124e-310 6.900376344388227135e-310 6.900376344324986732e-310 6.900376344281508955e-310 6.900376344285461480e-310 6.900376344431704912e-310 6.900376344338820570e-310 6.900376344336844308e-310 6.900376344309176631e-310 6.900376344263722592e-310 6.900376344307200369e-310 6.900376344382298347e-310 6.900376344261746329e-310 6.900376344328939257e-310 6.900376344311152894e-310 6.900376344398108448e-310 6.900376344346725620e-310 6.900376344332891782e-310 6.900376344344749358e-310 6.900376344443562487e-310 6.900376344303247844e-310 6.900376344279532693e-310 6.900376344362535721e-310 6.900376344299295318e-310 6.900376344330915520e-310 6.900376344437633699e-310 1.111647703142804724e-321 6.900472231875262829e-310 6.900472231875262829e-310 0.000000000000000000e+00 0.000000000000000000e+00 0.000000000000000000e+00 0.000000000000000000e+00 0.000000000000000000e+00 0.000000000000000000e+00 0.000000000000000000e+00 0.000000000000000000e+00 0.000000000000000000e+00 0.000000000000000000e+00 0.000000000000000000e+00 0.000000000000000000e+00 0.000000000000000000e+00 0.000000000000000000e+00 0.000000000000000000e+00 0.000000000000000000e+00 0.000000000000000000e+00 0.000000000000000000e+00 0.000000000000000000e+00 0.000000000000000000e+00 0.000000000000000000e+00 0.000000000000000000e+00 0.000000000000000000e+00 0.000000000000000000e+00 2.830008019378660205e-320 6.403090770102555213e-321 0.000000000000000000e+00 6.900472872081178932e-310 6.156057947181931940e-321 nan 1.431421924067757940e-153 1.028740571031598161e-71 1.692959994169537904e-52 2.484036705210230103e-91 1.880038144490346129e-153 2.487630092971268074e-91 8.242312666156629908e-72 2.485232875295296605e-91 8.242304029987045303e-72 9.721425767889318121e-72 3.003002389733852484e-67 6.376705968648912553e-67 1.794917870210002443e-52 3.311039081468047309e-33 1.866828972298624760e-72 6.823704850274670629e+212 8.159280629870948417e-43 1.245007428486065318e-47 2.898758828273731989e-57 3.008079229817419710e-67 3.008803685085451165e-67 3.008803685086631232e-67 4.665210961796199943e-62 1.086222912361392984e-71
9.500000000000000000e+00 8.550118774684194178e-02 -1.292141730209294792e+00 1.536757381238036180e+00 -5.893302204027925928e-01 -1.180525630979334384e+00 1.108429143610808889e-47 7.062541804871172107e-67 3.890322651587544463e-33 1.209416479815536804e-153 1.426234208302223130e-71 1.207669569276642461e-153 3.634789645383684667e-43 1.357710311131757531e-153 4.585551615016552738e-72 4.585555933100564864e-72 5.640405769286174310e-62 6.818929927112210030e-38 6.818929962281517191e-38 5.254656379721328171e-58 1.291646615107720504e-57 1.291960196736449357e-57 3.059126616742386427e+169 3.695304783877472410e-57 1.655544067564836797e-47 9.345643165174813048e-67 1.970434527538488183e-62 5.152333717554793960e-62 8.159280603144152027e-43 7.262449532729784643e-43 1.866828972381050026e-72 4.584424595019855535e-72 4.584437549272944549e-72 3.059866620577711586e+169 7.267704616000138546e-43 2.109763779845920480e-52 8.979069187715228713e-67 5.548926790979904401e-48 5.550278835805027128e-48 5.547574770025068648e-48 2.108913385531447117e-52 3.855236238721995310e-57 2.900003412227761886e-57 5.254656391174588842e-58 1.291023121885891949e-57 8.469077420196360210e-53 3.060609503718030838e+169 1.588190409105516226e-47 4.085172595362875031e-33 2.005766783375754803e-52 3.633038047892243389e-43 5.351760274113665875e-38 1.659131380948111266e-76 1.087328345191657541e-71 2.256857735181224210e-48 6.820404548621246111e+212 1.692960012814266924e-52 3.941729578782016213e-62 9.177554416843199324e-72 5.544922945724646356e-48 5.546259329819055610e-48 5.546259329818433309e-48 7.113853698999856236e-38 3.448279701848660629e-53 8.467006338483634357e-53 8.462928023190185722e-53 3.059126639235412831e+169 1.450810323446146590e-47 1.290096952290712100e-57 1.292273792609398609e-57 1.292273792609615945e-57 8.237104479627778205e-67 3.537862506991533968e-57 3.537862487703806875e-57 3.443691589244405496e-53 8.454771423720260246e-53 8.469061458165015602e-53 3.056163857062817715e+169 1.901361911814844290e-52 4.913126159059826551e-62 2.214576482644748722e-52 5.548947712737354921e-48 5.540918979858666745e-48 5.539566936771654063e-48 4.014492405657225022e-57 9.954694287706813981e-43 1.143263081768308249e-71 8.017969256681724094e-63 3.005181468725904599e-67 3.005175808926148253e-67 3.061346594506677382e+169 5.398349671093861986e-62 8.612951007905360566e-43 1.486070654464626914e-76 1.290406873377930072e-57 1.292273778366192730e-57
9.750000000000000000e+00 1.001632075676143901e-01 -1.333698768465924500e+00 1.492689650301665782e+00 -4.117256715941722822e-01 -1.327667476061690444e+00 1.369655062112372025e-71 2.003566077457522048e-76 1.450543018331350156e-47 1.970896345437878556e-62 1.967576606550072739e-62 1.971849612035884871e-62 9.061217267115821500e-43 7.866307321004942595e-67 7.866307276615036221e-67 3.443691628168280716e-53 8.460848976015049972e-53 8.456826387825786622e-53 3.056912420080776881e+169 6.376829336058933711e-67 1.508019898490871486e-153 3.061337721365779145e+169 1.431979792982594727e-153 1.969471859323755972e-62 8.017969255195501019e-63 1.969471952937060399e-62 1.968049472378159935e-62 3.055432412409783994e+169 1.028740567619480496e-71 4.583250094411863221e-72 1.243926303300648606e-258 6.825342096269695680e+212 1.207952944205439896e-153 5.539566794032173364e-48 1.243919348830529936e-258 6.813841970047859161e+212 3.470317096388915726e-320 6.956444293444751342e-321 0.000000000000000000e+00 6.900472872081178932e-310 6.669886218856828346e-321 nan 1.580589876744241812e-153 1.483371872319658407e-76 4.911227031417995111e-62 1.804041974243423712e-153 1.471665960966385425e-76 1.479007381760825421e-76 9.692874627854111473e-72 1.243922341645912656e-258 1.358872359752033176e-153 1.881247552266736173e-153 1.431417515055529954e-153 6.723208950266709171e-67 2.887615703482906649e-57 8.127922497877063437e-43 1.209122765219941058e-153 1.656623306130349126e-153 1.731206713373025649e-153 7.641258123162233959e-43 5.032801360760441088e-38 5.032801395792897476e-38 1.243924334261655565e-258 1.654878671557898304e-153 1.655170013027373584e-153 1.655170013131429734e-153 1.139077987671362607e-71 1.738092428118542967e-76 2.422162749918788105e-52 3.046917638545498388e-57 7.712616744673766143e-43 1.508040312394053270e-153 2.089590402315566644e-76 1.806082600137787821e-153 3.060606579423895447e+169 1.806082600207107536e-153 6.816634197138724722e-38 1.284290090492574174e-153 3.059872356692624656e+169 1.209998024615378785e-153 1.658119345445045615e-76 1.582042174871544755e-153 3.059138145208471425e+169 1.655461354566503241e-153 1.357710408152924883e-153 1.357710408049004400e-153 3.206224409722701479e-57 4.892310079648454957e-62 1.139076257078449006e-71 1.655750322839995675e-153 1.581458353914375530e-153 1.581458353932283234e-153 2.874029416965347228e-57 2.887610851321971557e-57 4.406133345383260146e-62 1.243918356505284783e-258
1.000000000000000000e+01 1.155929605624122225e-01 -1.373234283154869395e+00 1.435846565986957701e+00 -2.322802413989075998e-01 -1.402133845476805529e+00 1.806081365150767986e-153 1.656914647548067135e-153 1.656914647513200863e-153 7.641258122848200496e-43 8.973273619942680918e-67 1.657497330400390177e-153 1.485029859078792259e-76 1.208249975937048355e-153 4.587762440430844326e-72 1.284581334888859591e-153 1.289469779940705400e-57 1.719176764951349591e-47 4.584441849051197295e-72 4.584441850487639327e-72 4.584441850488926216e-72 4.910196609635918407e-62 2.108948122864584022e-52 1.199861062503526709e-71 5.254656379628598017e-58 6.827037407748043393e+212 7.265953018917769020e-43 1.796141364773633424e-52 1.030288172398164138e-71 1.289782150480368790e-57 1.292271356996343418e-57 1.292272572428580485e-57 9.507881152618546058e-43 3.537240138809313326e-57 2.003903443113732312e-76 5.254656367527856291e-58 1.291957775367036416e-57 1.289779720020002352e-57 3.056900936604520330e+169 4.853287692930305585e-33 1.724234153304452242e-47 2.630972523963092410e-52 4.583327800175106821e-72 1.796106658604000304e-52 6.381175995948760676e-67 6.381175907341671301e-67 5.254656331826203750e-58 1.139080591793969766e-71 3.505889002232863115e-33 3.192647799191537148e-57 4.083667962455631074e-33 1.508042588498741410e-153 1.245786476127434667e-47 1.358294229057591995e-153 4.581147185919680370e-72 1.400017574863873489e-76 9.741323398648535687e-72 2.901248053413103999e-57 2.256857755731643138e-48 5.550257954830109662e-48 5.550273615559900621e-48 3.054712642439425436e+169 4.852535319014419894e-33 2.740071872257115171e-57 1.900138398558151849e-52 1.971372985672785153e-62 1.971845910074609507e-62 1.971844055471755681e-62 7.407727286704355875e-38 6.127609317492312188e-62 6.127609317548910183e-62 3.443691581678099727e-53 8.456770722953185870e-53 5.544907245949822240e-48 3.059118001322466525e+169 8.611199544774813942e-43 4.911227045567493671e-62 4.911227103580437770e-62 1.289785806273950907e-57 1.290098172875056377e-57 1.292276228222452385e-57 1.656590412068356460e-47 2.177301504548657486e-76 2.177301520152112883e-76 2.256857714928732139e-48 5.548932033351618061e-48 5.550252754977806652e-48 3.058398152620603713e+169 1.830505330263704526e-76 1.795325676944805675e-52 2.089253036542145944e-76 4.589964729444730320e-72 4.589960412798185715e-72 1.561881123972610014e-33 1.284293407611486822e-153 2.487026348136603764e-91
1.025000000000000000e+01 1.320918726756050154e-01 -1.410234249854926958e+00 1.367605149963814437e+00 -5.695846369266915205e-02 -1.425537402545542953e+00 1.445485662716224050e-47 1.969002781208866101e-62 1.565380922177113092e-76 3.060540356159029869e+169 1.504815160646082288e-153 1.207661602840099198e-153 1.207661602822598229e-153 8.242291009439126113e-72 1.202716866991525287e-153 3.055432267249862502e+169 1.283104315295586193e-153 4.584454485838985191e-72 3.059115088275612938e+169 1.290598280066504223e-319 6.126414008431457148e-320 6.561191776771754107e-321 0.000000000000000000e+00 6.900472872081178932e-310 6.324040266767955765e-321 nan 1.582043169760865143e-153 1.483371841474528164e-76 7.493937907654497017e-67 2.488826060121080222e-91 1.432246359183453118e-153 2.484032224656829239e-91 1.281064925285488001e-153 1.289759043788764092e-57 8.456801964790167183e-53 1.996821565006518016e-52 4.586661026511521330e-72 1.243921360603672351e-258 1.282540903761830516e-153 1.208831520737104169e-153 1.880664869449681898e-153 1.565376968831062539e-76 4.406151920335592959e-62 1.240213173083615128e-47 1.357126490209653838e-153 1.879793121250204111e-153 1.880375804049893349e-153 1.302809011843523855e-47 1.829272177237128751e-258 1.432292677308459428e-153 1.730626306695186620e-153 1.730917647990941039e-153 1.308638029601416387e-47 8.576276452794133162e-43 8.576303768449462339e-43 1.655167639970368804e-153 1.881247552267075869e-153 1.433455767064374940e-153 1.165963458782451182e-47 1.788011816797850873e-52 1.788010217482924092e-52 1.243922326169696715e-258 1.878919097032253669e-153 1.729752282373518929e-153 1.729752282304057718e-153 1.082479129811840145e-71 1.580874436196988822e-153 1.431707718455160725e-153 1.431707718333671439e-153 6.320700575079496960e-67 1.829269196112192896e-258 1.879793121319190224e-153 1.731208989547513636e-153 1.508041450515930889e-153 1.738093771629359624e-76 1.139080592017064912e-71 7.465067292461376344e-67 1.207667196098357724e-153 1.804625893050421427e-153 1.730625168538650998e-153 1.234386235249232970e-47 8.127874602246660455e-43 5.326715270897742512e-38 1.243921337645361626e-258 1.730044761878448074e-153 1.729753420461068702e-153 1.580295264262787236e-153 3.683491470430907853e-33 5.620557469449291780e-38 8.576276426170886154e-43 1.730626209639289722e-153 1.656334240696779107e-153 1.731208989582448271e-153 5.595522099213082837e-38 3.683509148767737626e-33 1.738099047917817703e-76
1.050000000000000000e+01 1.500595304666917928e-01 -1.443901534137985054e+00 1.290127057183428905e+00 1.076831563472005343e-01 -1.425393679724292095e+00 3.206234095316238205e-57 1.209126179377378677e-153 1.371241184844387305e-47 1.377060793978049708e-47 1.377059749929335071e-47 1.243927292141982759e-258 1.730336103295760143e-153 1.581169288689121311e-153 1.432002474065117176e-153 4.892325003515951279e-62 7.465089865592378694e-67 7.465084205792964969e-67 1.805210755003771525e-153 1.730044761826420264e-153 1.431128449725948781e-153 8.538089139704503319e-43 3.046912721352487067e-57 1.651733414170095408e-76 1.243926303572219622e-258 1.431417514951677568e-153 1.508039174376173242e-153 1.209122862154212474e-153 4.163054301831525742e-62 9.692822878312841710e-72 1.650757116408956648e-47 2.379804311729194567e-38 7.089956814442142512e-38 1.806353563389574928e-153 7.089934446209571583e-38 1.433436522453508303e-153 3.057657969750152228e+169 1.507437229044416151e-153 3.002291898789264804e-67 1.243918371725015010e-258 1.967582018846357208e-62 3.046912768128325592e-57 8.017969274928514647e-63 8.576331242600780898e-43 3.855236286159564565e-57 8.017969274437963001e-63 1.290713158068113135e-57 1.292270127320174885e-57 3.059123726190270081e+169 1.830167984956275767e-76 5.151464938399751471e-62 5.151464996356097576e-62 4.591065807200471443e-72 1.086867359122453660e-71 4.668140540366306434e-62 2.004951082954474844e-52 5.254656438836801197e-58 1.291650256657877425e-57 1.291027955130163756e-57 3.056912420081806600e+169 7.489591181437546147e-67 1.142820916645657904e-71 1.743806330330898901e-76 4.582226688684332279e-72 1.558873316322743722e-33 9.921557056504811410e-43 1.292277429007086660e-57 1.892415107639945947e-52 1.282230322144643263e-153 3.540048167856881718e-62 1.483371846543142622e-76 1.483371872421605551e-76 2.485834833293241709e-91 2.485233238660361092e-91 5.401679188711443337e-67 1.969950476135823474e-62 1.356813716085294395e-153 3.058380675174066617e+169 1.804896825010125385e-153 4.588863249493344883e-72 1.243921345096935975e-258 4.591078426990766801e-72 1.788013415653096849e-52 1.866828951278965191e-72 4.002765483942454044e-57 2.488231688668725309e-91 2.486433725280275154e-91 1.483371851809861398e-76 1.207661602770565384e-153 1.483371882653276527e-76 8.458201645614610931e-315 5.732001403356390032e-319 6.900472231960637372e-310 6.900472231960637372e-310 9.152716285165427970e-316 9.152716285165427970e-316
1.075000000000000000e+01 1.685568182093573064e-01 -1.475122746554530684e+00 1.202932675697972353e+00 2.679477984588435890e-01 -1.378007093482600753e+00 1.561879625905905485e-33 1.431998962851508411e-153 1.358289676778284177e-153 1.508330515689564033e-153 6.691621190322646586e-67 1.892426215697909018e-52 3.490907303638235053e-33 1.243923334077158360e-258 1.508331653776571405e-153 1.207959772659048101e-153 1.432292677464814985e-153 3.046917630557847797e-57 1.208833700046374422e-153 1.804627031050872824e-153 1.207377089754692479e-153 8.089673631851803788e-43 1.892424659968396722e-52 4.406125984927303148e-62 1.243919368304514438e-258 1.283999887092813036e-153 1.731208989582651241e-153 1.880084462667583218e-153 1.996829531405684958e-52 3.046917620991255229e-57 7.094135269359413079e-67 1.879790748158333589e-153 1.730624030607524616e-153 1.432290401324785741e-153 4.142334328883878042e-62 1.829276135271664934e-258 1.729752282338652657e-153 1.207959772554720088e-153 1.730043623738734560e-153 4.649219865067606907e-62 1.804624658132993170e-153 1.730332689172915608e-153 1.879790845197137312e-153 1.165963458702983277e-47 7.679452144474474346e-43 3.298311347594441422e-33 1.243924311017046905e-258 1.655752695861861260e-153 1.357710408187655754e-153 1.357710408170426117e-153 3.206214667307286391e-57 4.892299053453608577e-62 4.892295358736550461e-62 1.806373844638061025e-153 1.881248690423408521e-153 1.282251838501303820e-153 7.062541805043584483e-67 4.649216257403080327e-62 3.046912787821457326e-57 1.243925322801133491e-258 1.283999887110382103e-153 1.880375804154288665e-153 1.880375804171721801e-153 1.308636989646947719e-47 8.576303928919762561e-43 5.620575353589368634e-38 1.804336730699334531e-153 1.879211576397718257e-153 1.283127000892951686e-153 3.192647799191548467e-57 3.206217079258838369e-57 3.206219510124182415e-57 1.243920349105885549e-258 1.357710408049005195e-153 3.206219529112161437e-57 3.206221959980659124e-57 4.892313875902319926e-62 1.731210030561395004e-153 1.805793534911996235e-153 1.805793534877265629e-153 1.371231788421822076e-47 1.377059745851020994e-47 1.377068094162424497e-47 1.243925303433150927e-258 1.582916199245380956e-153 1.656625582235444530e-153 1.208542455424210232e-153 1.082486052267053083e-71 5.326706320035380948e-38 2.887618105935727619e-57 1.209415244707233302e-153 1.730333827120999763e-153 1.282250700397202213e-153 5.007774923186132006e-38 1.171796636311721281e-47 4.163039363588137155e-62
1.100000000000000000e+01 1.884362103228771068e-01 -1.502291802279174027e+00 1.109574520372509809e+00 4.126473755595620463e-01 -1.324997713100629415e+00 5.152333587153019543e-62 1.507748970941943293e-153 5.538267055337541164e-48 1.654877436588035767e-153 5.542239681089235128e-48 1.308870246566634093e-71 3.635675705837868524e-43 7.089925478042080646e-38 9.164289296203173305e-72 4.587779728197741298e-72 4.586635454169180542e-72 4.591057172470676792e-72 9.736713402757439045e-72 4.181967428316145160e-62 7.714368367656663788e-43 5.254656367666408181e-58 6.817148918511511753e+212 5.151464909534755408e-62 1.199418897394311489e-71 3.888818041870535901e-33 4.588859266134644813e-72 4.589964697147944600e-72 4.589964697147429844e-72 5.643337816769482188e-38 8.611199357992494741e-43 8.611199331264847640e-43 5.254656332011664058e-58 1.290713158067749209e-57 1.738092468958429187e-76 8.017969383525921498e-63 8.576303793308028693e-43 5.936161307664878204e-38 7.062541804698448736e-67 6.008806427399985498e-67 1.040135809239730841e-42 1.223445015929603105e-67 3.002277892132428649e-67 2.887613215016344009e-57 1.223445021413025237e-67 1.899730560343934340e-52 1.431417514985996405e-153 9.166311742030042389e-72 1.359163701204342149e-153 8.458873510932541380e-53 1.656914550526764646e-153 5.547606050703363331e-48 8.206931073362187731e-67 5.542239638569523051e-48 1.879480245813757275e-153 1.243925283748582212e-258 5.378501649780732874e-62 1.283686993702062904e-153 3.859674356974555679e-33 3.508480631089488285e+183 1.582332378253334861e-153 1.507166288002521344e-153 1.021060362173974921e-71 7.679445328193627917e-43 1.805207437762086060e-153 1.029606076773121823e-71 1.804042072041552695e-153 4.589951692291535335e-72 5.543159571013956078e-310 0.000000000000000000e+00 0.000000000000000000e+00 0.000000000000000000e+00 0.000000000000000000e+00 0.000000000000000000e+00 0.000000000000000000e+00 0.000000000000000000e+00 0.000000000000000000e+00 0.000000000000000000e+00 0.000000000000000000e+00 0.000000000000000000e+00 5.540743209789422542e-310 0.000000000000000000e+00 0.000000000000000000e+00 1.460161609719220037e-319 0.000000000000000000e+00 0.000000000000000000e+00 0.000000000000000000e+00 0.000000000000000000e+00 0.000000000000000000e+00 0.000000000000000000e+00 0.000000000000000000e+00 8.001617319455825129e+241 0.000000000000000000e+00 0.000000000000000000e+00 0.000000000000000000e+00 0.000000000000000000e+00
1.125000000000000000e+01 2.088424809896293477e-01 -1.526221072988934058e+00 1.009461785378886534e+00 5.488081384032059695e-01 -1.237930647421329855e+00 0.000000000000000000e+00 0.000000000000000000e+00 0.000000000000000000e+00 0.000000000000000000e+00 0.000000000000000000e+00 0.000000000000000000e+00 0.000000000000000000e+00 0.000000000000000000e+00 0.000000000000000000e+00 0.000000000000000000e+00 0.000000000000000000e+00 0.000000000000000000e+00 0.000000000000000000e+00 0.000000000000000000e+00 0.000000000000000000e+00 0.000000000000000000e+00 0.000000000000000000e+00 0.000000000000000000e+00 0.000000000000000000e+00 0.000000000000000000e+00 0.000000000000000000e+00 1.460359235977556535e-319 0.000000000000000000e+00 0.000000000000000000e+00 5.540531011495440166e-310 0.000000000000000000e+00 0.000000000000000000e+00 0.000000000000000000e+00 0.000000000000000000e+00 0.000000000000000000e+00 0.000000000000000000e+00 0.000000000000000000e+00 0.000000000000000000e+00 2.482735075429368609e-312 0.000000000000000000e+00 0.000000000000000000e+00 0.000000000000000000e+00 0.000000000000000000e+00 0.000000000000000000e+00 0.000000000000000000e+00 0.000000000000000000e+00 0.000000000000000000e+00 0.000000000000000000e+00 0.000000000000000000e+00 0.000000000000000000e+00 0.000000000000000000e+00 0.000000000000000000e+00 0.000000000000000000e+00 0.000000000000000000e+00 0.000000000000000000e+00 0.000000000000000000e+00 0.000000000000000000e+00 0.000000000000000000e+00 0.000000000000000000e+00 0.000000000000000000e+00 0.000000000000000000e+00 0.000000000000000000e+00 0.000000000000000000e+00 0.000000000000000000e+00 0.000000000000000000e+00 0.000000000000000000e+00 0.000000000000000000e+00 0.000000000000000000e+00 0.000000000000000000e+00 0.000000000000000000e+00 0.000000000000000000e+00 0.000000000000000000e+00 0.000000000000000000e+00 0.000000000000000000e+00 0.000000000000000000e+00 0.000000000000000000e+00 0.000000000000000000e+00 0.000000000000000000e+00 0.000000000000000000e+00 0.000000000000000000e+00 0.000000000000000000e+00 0.000000000000000000e+00 0.000000000000000000e+00 0.000000000000000000e+00 0.000000000000000000e+00 0.000000000000000000e+00 0.000000000000000000e+00 0.000000000000000000e+00 0.000000000000000000e+00 0.000000000000000000e+00 0.000000000000000000e+00 0.000000000000000000e+00 0.000000000000000000e+00 1.154532601201824924e-319 0.000000000000000000e+00
1.150000000000000000e+01 2.301529829262639049e-01 -1.546104078834470430e+00 9.046459398624381310e-01 6.716789826383129380e-01 -1.133008520772357919e+00 0.000000000000000000e+00 0.000000000000000000e+00 6.273256156830634545e-310 0.000000000000000000e+00 0.000000000000000000e+00 0.000000000000000000e+00 0.000000000000000000e+00 0.000000000000000000e+00 0.000000000000000000e+00 0.000000000000000000e+00 0.000000000000000000e+00 0.000000000000000000e+00 0.000000000000000000e+00 0.000000000000000000e+00 0.000000000000000000e+00 0.000000000000000000e+00 0.000000000000000000e+00 0.000000000000000000e+00 6.217023268370054829e-310 0.000000000000000000e+00 0.000000000000000000e+00 0.000000000000000000e+00 0.000000000000000000e+00 0.000000000000000000e+00 0.000000000000000000e+00 0.000000000000000000e+00 0.000000000000000000e+00 0.000000000000000000e+00 0.000000000000000000e+00 0.000000000000000000e+00 0.000000000000000000e+00 0.000000000000000000e+00 0.000000000000000000e+00 0.000000000000000000e+00 0.000000000000000000e+00 0.000000000000000000e+00 0.000000000000000000e+00 0.000000000000000000e+00 0.000000000000000000e+00 0.000000000000000000e+00 0.000000000000000000e+00 0.000000000000000000e+00 0.000000000000000000e+00 0.000000000000000000e+00 0.000000000000000000e+00 0.000000000000000000e+00 0.000000000000000000e+00 0.000000000000000000e+00 0.000000000000000000e+00 0.000000000000000000e+00 0.000000000000000000e+00 0.000000000000000000e+00 0.000000000000000000e+00 0.000000000000000000e+00 0.000000000000000000e+00 0.000000000000000000e+00 0.000000000000000000e+00 0.000000000000000000e+00 0.000000000000000000e+00 0.000000000000000000e+00 0.000000000000000000e+00 0.000000000000000000e+00 0.000000000000000000e+00 0.000000000000000000e+00 0.000000000000000000e+00 0.000000000000000000e+00 0.000000000000000000e+00 0.000000000000000000e+00 0.000000000000000000e+00 0.000000000000000000e+00 0.000000000000000000e+00 0.000000000000000000e+00 0.000000000000000000e+00 0.000000000000000000e+00 0.000000000000000000e+00 0.000000000000000000e+00 0.000000000000000000e+00 0.000000000000000000e+00 0.000000000000000000e+00 0.000000000000000000e+00 0.000000000000000000e+00 0.000000000000000000e+00 0.000000000000000000e+00 0.000000000000000000e+00 0.000000000000000000e+00 0.000000000000000000e+00 0.000000000000000000e+00 0.000000000000000000e+00 0.000000000000000000e+00 0.000000000000000000e+00
1.175000000000000000e+01 2.527752380987745018e-01 -1.561248138914243633e+00 7.970790528926685603e-01 7.765615043266852480e-01 -1.027867806278820906e+00 0.000000000000000000e+00 0.000000000000000000e+00 0.000000000000000000e+00 0.000000000000000000e+00 0.000000000000000000e+00 0.000000000000000000e+00 0.000000000000000000e+00 0.000000000000000000e+00 0.000000000000000000e+00 0.000000000000000000e+00 0.000000000000000000e+00 0.000000000000000000e+00 0.000000000000000000e+00 0.000000000000000000e+00 0.000000000000000000e+00 0.000000000000000000e+00 0.000000000000000000e+00 0.000000000000000000e+00 0.000000000000000000e+00 0.000000000000000000e+00 0.000000000000000000e+00 0.000000000000000000e+00 0.000000000000000000e+00 0.000000000000000000e+00 0.000000000000000000e+00 0.000000000000000000e+00 0.000000000000000000e+00 0.000000000000000000e+00 0.000000000000000000e+00 0.000000000000000000e+00 0.000000000000000000e+00 0.000000000000000000e+00 0.000000000000000000e+00 0.000000000000000000e+00 0.000000000000000000e+00 0.000000000000000000e+00 0.000000000000000000e+00 0.000000000000000000e+00 0.000000000000000000e+00 0.000000000000000000e+00 0.000000000000000000e+00 0.000000000000000000e+00 0.000000000000000000e+00 0.000000000000000000e+00 0.000000000000000000e+00 0.000000000000000000e+00 0.000000000000000000e+00 0.000000000000000000e+00 0.000000000000000000e+00 0.000000000000000000e+00 0.000000000000000000e+00 0.000000000000000000e+00 0.000000000000000000e+00 0.000000000000000000e+00 0.000000000000000000e+00 0.000000000000000000e+00 0.000000000000000000e+00 0.000000000000000000e+00 0.000000000000000000e+00 0.000000000000000000e+00 0.000000000000000000e+00 0.000000000000000000e+00 0.000000000000000000e+00 0.000000000000000000e+00 0.000000000000000000e+00 0.000000000000000000e+00 0.000000000000000000e+00 0.000000000000000000e+00 0.000000000000000000e+00 0.000000000000000000e+00 0.000000000000000000e+00 0.000000000000000000e+00 0.000000000000000000e+00 0.000000000000000000e+00 2.503955033339021332e-312 0.000000000000000000e+00 0.000000000000000000e+00 0.000000000000000000e+00 0.000000000000000000e+00 0.000000000000000000e+00 0.000000000000000000e+00 0.000000000000000000e+00 0.000000000000000000e+00 0.000000000000000000e+00 0.000000000000000000e+00 0.000000000000000000e+00 0.000000000000000000e+00 0.000000000000000000e+00 1.281853318135114159e-319 0.000000000000000000e+00
1.200000000000000000e+01 2.757873904934233789e-01 -1.572924169869591493e+00 6.855287542517496391e-01 8.724327404093499272e-01 -8.912433584463532732e-01 0.000000000000000000e+00 0.000000000000000000e+00 0.000000000000000000e+00 0.000000000000000000e+00 0.000000000000000000e+00 0.000000000000000000e+00 0.000000000000000000e+00 0.000000000000000000e+00 0.000000000000000000e+00 0.000000000000000000e+00 0.000000000000000000e+00 0.000000000000000000e+00 0.000000000000000000e+00 0.000000000000000000e+00 0.000000000000000000e+00 0.000000000000000000e+00 0.000000000000000000e+00 0.000000000000000000e+00 0.000000000000000000e+00 0.000000000000000000e+00 0.000000000000000000e+00 0.000000000000000000e+00 0.000000000000000000e+00 0.000000000000000000e+00 0.000000000000000000e+00 0.000000000000000000e+00 0.000000000000000000e+00 0.000000000000000000e+00 0.000000000000000000e+00 0.000000000000000000e+00 0.000000000000000000e+00 0.000000000000000000e+00 6.249930419891768784e-320 0.000000000000000000e+00 0.000000000000000000e+00 0.000000000000000000e+00 0.000000000000000000e+00 0.000000000000000000e+00 0.000000000000000000e+00 0.000000000000000000e+00 0.000000000000000000e+00 0.000000000000000000e+00 0.000000000000000000e+00 0.000000000000000000e+00 0.000000000000000000e+00 0.000000000000000000e+00 0.000000000000000000e+00 0.000000000000000000e+00 0.000000000000000000e+00 0.000000000000000000e+00 0.000000000000000000e+00 0.000000000000000000e+00 0.000000000000000000e+00 0.000000000000000000e+00 0.000000000000000000e+00 0.000000000000000000e+00 5.928787750094958530e-322 0.000000000000000000e+00 9.109855892762441496e-315 6.045778208039157353e-310 1.173455315437544667e-319 7.734392312437051360e-315 0.000000000000000000e+00 0.000000000000000000e+00 0.000000000000000000e+00 0.000000000000000000e+00 6.223258599654454200e-310 6.200471701200525705e-310 0.000000000000000000e+00 0.000000000000000000e+00 0.000000000000000000e+00 0.000000000000000000e+00 0.000000000000000000e+00 0.000000000000000000e+00 9.336185705061746511e-315 0.000000000000000000e+00 1.200036047183803731e-319 0.000000000000000000e+00 0.000000000000000000e+00 0.000000000000000000e+00 0.000000000000000000e+00 0.000000000000000000e+00 9.218973413141362512e-315 5.902119092990808417e-310 1.186893901004426573e-319 7.822463426808168619e-315 0.000000000000000000e+00 0.000000000000000000e+00 0.000000000000000000e+00 0.000000000000000000e+00
1.225000000000000000e+01 2.995056949845413263e-01 -1.580660023245532786e+00 5.719251182225164598e-01 9.553353342688303274e-01 -7.415756386235046183e-01 0.000000000000000000e+00 0.000000000000000000e+00 9.455016951290423107e-315 0.000000000000000000e+00 0.000000000000000000e+00 0.000000000000000000e+00 0.000000000000000000e+00 0.000000000000000000e+00 0.000000000000000000e+00 0.000000000000000000e+00 0.000000000000000000e+00 0.000000000000000000e+00 0.000000000000000000e+00 0.000000000000000000e+00 0.000000000000000000e+00 0.000000000000000000e+00 0.000000000000000000e+00 0.000000000000000000e+00 0.000000000000000000e+00 0.000000000000000000e+00 0.000000000000000000e+00 0.000000000000000000e+00 0.000000000000000000e+00 0.000000000000000000e+00 0.000000000000000000e+00 0.000000000000000000e+00 0.000000000000000000e+00 0.000000000000000000e+00 0.000000000000000000e+00 0.000000000000000000e+00 0.000000000000000000e+00 0.000000000000000000e+00 0.000000000000000000e+00 0.000000000000000000e+00 0.000000000000000000e+00 0.000000000000000000e+00 0.000000000000000000e+00 0.000000000000000000e+00 0.000000000000000000e+00 0.000000000000000000e+00 0.000000000000000000e+00 0.000000000000000000e+00 9.539850157044955173e-315 0.000000000000000000e+00 0.000000000000000000e+00 0.000000000000000000e+00 0.000000000000000000e+00 0.000000000000000000e+00 0.000000000000000000e+00 0.000000000000000000e+00 0.000000000000000000e+00 0.000000000000000000e+00 0.000000000000000000e+00 0.000000000000000000e+00 0.000000000000000000e+00 0.000000000000000000e+00 0.000000000000000000e+00 0.000000000000000000e+00 9.560248981329441891e-315 0.000000000000000000e+00 0.000000000000000000e+00 0.000000000000000000e+00 0.000000000000000000e+00 0.000000000000000000e+00 0.000000000000000000e+00 0.000000000000000000e+00 0.000000000000000000e+00 0.000000000000000000e+00 0.000000000000000000e+00 0.000000000000000000e+00 0.000000000000000000e+00 0.000000000000000000e+00 0.000000000000000000e+00 0.000000000000000000e+00 0.000000000000000000e+00 0.000000000000000000e+00 0.000000000000000000e+00 0.000000000000000000e+00 0.000000000000000000e+00 0.000000000000000000e+00 0.000000000000000000e+00 0.000000000000000000e+00 0.000000000000000000e+00 0.000000000000000000e+00 0.000000000000000000e+00 0.000000000000000000e+00 0.000000000000000000e+00 0.000000000000000000e+00 0.000000000000000000e+00 0.000000000000000000e+00
1.250000000000000000e+01 3.243437546010380923e-01 -1.583917523498604707e+00 4.574567426446765617e-01 1.020626167038219512e+00 -5.986602437249310960e-01 0.000000000000000000e+00 0.000000000000000000e+00 0.000000000000000000e+00 0.000000000000000000e+00 0.000000000000000000e+00 0.000000000000000000e+00 0.000000000000000000e+00 0.000000000000000000e+00 0.000000000000000000e+00 0.000000000000000000e+00 0.000000000000000000e+00 0.000000000000000000e+00 0.000000000000000000e+00 0.000000000000000000e+00 0.000000000000000000e+00 0.000000000000000000e+00 0.000000000000000000e+00 0.000000000000000000e+00 0.000000000000000000e+00 0.000000000000000000e+00 0.000000000000000000e+00 0.000000000000000000e+00 0.000000000000000000e+00 0.000000000000000000e+00 0.000000000000000000e+00 0.000000000000000000e+00 0.000000000000000000e+00 0.000000000000000000e+00 0.000000000000000000e+00 0.000000000000000000e+00 0.000000000000000000e+00 0.000000000000000000e+00 0.000000000000000000e+00 0.000000000000000000e+00 0.000000000000000000e+00 0.000000000000000000e+00 0.000000000000000000e+00 0.000000000000000000e+00 0.000000000000000000e+00 0.000000000000000000e+00 0.000000000000000000e+00 0.000000000000000000e+00 0.000000000000000000e+00 0.000000000000000000e+00 0.000000000000000000e+00 0.000000000000000000e+00 0.000000000000000000e+00 0.000000000000000000e+00 0.000000000000000000e+00 0.000000000000000000e+00 0.000000000000000000e+00 0.000000000000000000e+00 0.000000000000000000e+00 0.000000000000000000e+00 0.000000000000000000e+00 0.000000000000000000e+00 0.000000000000000000e+00 9.570286498040855990e-315 0.000000000000000000e+00 0.000000000000000000e+00 0.000000000000000000e+00 0.000000000000000000e+00 0.000000000000000000e+00 0.000000000000000000e+00 0.000000000000000000e+00 0.000000000000000000e+00 0.000000000000000000e+00 0.000000000000000000e+00 0.000000000000000000e+00 0.000000000000000000e+00 0.000000000000000000e+00 0.000000000000000000e+00 0.000000000000000000e+00 0.000000000000000000e+00 0.000000000000000000e+00 0.000000000000000000e+00 0.000000000000000000e+00 0.000000000000000000e+00 0.000000000000000000e+00 0.000000000000000000e+00 0.000000000000000000e+00 0.000000000000000000e+00 0.000000000000000000e+00 0.000000000000000000e+00 9.561867935637734488e-315 1.062362559440530589e+246 1.365350412282284825e-319 0.000000000000000000e+00 0.000000000000000000e+00 0.000000000000000000e+00
1.275000000000000000e+01 3.492990668139785981e-01 -1.584035425341790537e+00 3.416156889623919723e-01 1.077478194846533288e+00 -4.357399048590799295e-01 0.000000000000000000e+00 0.000000000000000000e+00 0.000000000000000000e+00 0.000000000000000000e+00 0.000000000000000000e+00 8.099628404387861170e-315 0.000000000000000000e+00 0.000000000000000000e+00 0.000000000000000000e+00 0.000000000000000000e+00 0.000000000000000000e+00 0.000000000000000000e+00 0.000000000000000000e+00 0.000000000000000000e+00 0.000000000000000000e+00 0.000000000000000000e+00 0.000000000000000000e+00 0.000000000000000000e+00 0.000000000000000000e+00 0.000000000000000000e+00 0.000000000000000000e+00 0.000000000000000000e+00 0.000000000000000000e+00 0.000000000000000000e+00 0.000000000000000000e+00 0.000000000000000000e+00 0.000000000000000000e+00 0.000000000000000000e+00 0.000000000000000000e+00 0.000000000000000000e+00 0.000000000000000000e+00 0.000000000000000000e+00 0.000000000000000000e+00 0.000000000000000000e+00 0.000000000000000000e+00 0.000000000000000000e+00 0.000000000000000000e+00 0.000000000000000000e+00 0.000000000000000000e+00 0.000000000000000000e+00 0.000000000000000000e+00 0.000000000000000000e+00 8.372907891627651489e-315 0.000000000000000000e+00 0.000000000000000000e+00 0.000000000000000000e+00 0.000000000000000000e+00 0.000000000000000000e+00 0.000000000000000000e+00 0.000000000000000000e+00 0.000000000000000000e+00 0.000000000000000000e+00 0.000000000000000000e+00 0.000000000000000000e+00 0.000000000000000000e+00 0.000000000000000000e+00 0.000000000000000000e+00 0.000000000000000000e+00 0.000000000000000000e+00 0.000000000000000000e+00 0.000000000000000000e+00 0.000000000000000000e+00 0.000000000000000000e+00 0.000000000000000000e+00 0.000000000000000000e+00 0.000000000000000000e+00 0.000000000000000000e+00 0.000000000000000000e+00 0.000000000000000000e+00 0.000000000000000000e+00 0.000000000000000000e+00 0.000000000000000000e+00 0.000000000000000000e+00 0.000000000000000000e+00 0.000000000000000000e+00 0.000000000000000000e+00 0.000000000000000000e+00 0.000000000000000000e+00 0.000000000000000000e+00 0.000000000000000000e+00 0.000000000000000000e+00 0.000000000000000000e+00 0.000000000000000000e+00 0.000000000000000000e+00 0.000000000000000000e+00 0.000000000000000000e+00 0.000000000000000000e+00 0.000000000000000000e+00 0.000000000000000000e+00 0.000000000000000000e+00
1.300000000000000000e+01 3.748046787863743567e-01 -1.580322686723714565e+00 2.258024241940137511e-01 1.120957596721388061e+00 -2.729563248437897327e-01 0.000000000000000000e+00 0.000000000000000000e+00 0.000000000000000000e+00 0.000000000000000000e+00 0.000000000000000000e+00 0.000000000000000000e+00 0.000000000000000000e+00 0.000000000000000000e+00 0.000000000000000000e+00 0.000000000000000000e+00 0.000000000000000000e+00 0.000000000000000000e+00 0.000000000000000000e+00 0.000000000000000000e+00 0.000000000000000000e+00 0.000000000000000000e+00 0.000000000000000000e+00 0.000000000000000000e+00 0.000000000000000000e+00 0.000000000000000000e+00 0.000000000000000000e+00 0.000000000000000000e+00 0.000000000000000000e+00 0.000000000000000000e+00 0.000000000000000000e+00 0.000000000000000000e+00 0.000000000000000000e+00 0.000000000000000000e+00 0.000000000000000000e+00 0.000000000000000000e+00 0.000000000000000000e+00 0.000000000000000000e+00 0.000000000000000000e+00 0.000000000000000000e+00 8.421604696326929984e-315 0.000000000000000000e+00 0.000000000000000000e+00 0.000000000000000000e+00 0.000000000000000000e+00 0.000000000000000000e+00 0.000000000000000000e+00 0.000000000000000000e+00 0.000000000000000000e+00 0.000000000000000000e+00 0.000000000000000000e+00 0.000000000000000000e+00 0.000000000000000000e+00 0.000000000000000000e+00 0.000000000000000000e+00 0.000000000000000000e+00 0.000000000000000000e+00 0.000000000000000000e+00 0.000000000000000000e+00 0.000000000000000000e+00 0.000000000000000000e+00 0.000000000000000000e+00 0.000000000000000000e+00 0.000000000000000000e+00 9.547944928586418156e-315 0.000000000000000000e+00 0.000000000000000000e+00 0.000000000000000000e+00 0.000000000000000000e+00 0.000000000000000000e+00 0.000000000000000000e+00 0.000000000000000000e+00 1.358137053853002625e-319 0.000000000000000000e+00 8.458524848538150899e-315 0.000000000000000000e+00 0.000000000000000000e+00 0.000000000000000000e+00 0.000000000000000000e+00 8.355423185098091445e-315 0.000000000000000000e+00 0.000000000000000000e+00 0.000000000000000000e+00 0.000000000000000000e+00 0.000000000000000000e+00 0.000000000000000000e+00 0.000000000000000000e+00 0.000000000000000000e+00 0.000000000000000000e+00 0.000000000000000000e+00 0.000000000000000000e+00 0.000000000000000000e+00 0.000000000000000000e+00 0.000000000000000000e+00 0.000000000000000000e+00 0.000000000000000000e+00
1.325000000000000000e+01 4.012229457248234210e-01 -1.572248310568636009e+00 1.117595907565965413e-01 1.146212024289068543e+00 -1.320035520752883273e-01 0.000000000000000000e+00 0.000000000000000000e+00 9.531755385503492189e-315 0.000000000000000000e+00 0.000000000000000000e+00 0.000000000000000000e+00 0.000000000000000000e+00 0.000000000000000000e+00 0.000000000000000000e+00 0.000000000000000000e+00 0.000000000000000000e+00 0.000000000000000000e+00 0.000000000000000000e+00 0.000000000000000000e+00 0.000000000000000000e+00 0.000000000000000000e+00 0.000000000000000000e+00 0.000000000000000000e+00 0.000000000000000000e+00 0.000000000000000000e+00 0.000000000000000000e+00 0.000000000000000000e+00 0.000000000000000000e+00 0.000000000000000000e+00 0.000000000000000000e+00 0.000000000000000000e+00 0.000000000000000000e+00 0.000000000000000000e+00 0.000000000000000000e+00 0.000000000000000000e+00 0.000000000000000000e+00 0.000000000000000000e+00 0.000000000000000000e+00 0.000000000000000000e+00 0.000000000000000000e+00 0.000000000000000000e+00 3.464612199113307615e+234 9.568488020039490518e-315 2.403472466302677713e+246 9.559925190467783372e-315 0.000000000000000000e+00 0.000000000000000000e+00 0.000000000000000000e+00 0.000000000000000000e+00 3.647035167961810217e+178 0.000000000000000000e+00 0.000000000000000000e+00 1.284965931703914012e-319 9.547621137724759637e-315 8.954257926408859983e-315 0.000000000000000000e+00 9.361793285459751295e+244 0.000000000000000000e+00 6.522568517919983149e+212 5.512308466190487893e-310 0.000000000000000000e+00 0.000000000000000000e+00 0.000000000000000000e+00 0.000000000000000000e+00 0.000000000000000000e+00 0.000000000000000000e+00 0.000000000000000000e+00 0.000000000000000000e+00 0.000000000000000000e+00 9.487072246594616521e-315 6.262646177875808184e-310 9.523660613962029206e-315 0.000000000000000000e+00 0.000000000000000000e+00 5.306474874466856478e-310 0.000000000000000000e+00 0.000000000000000000e+00 0.000000000000000000e+00 0.000000000000000000e+00 9.515565842420566223e-315 0.000000000000000000e+00 0.000000000000000000e+00 0.000000000000000000e+00 0.000000000000000000e+00 0.000000000000000000e+00 0.000000000000000000e+00 0.000000000000000000e+00 8.946341507624889231e-315 0.000000000000000000e+00 0.000000000000000000e+00 0.000000000000000000e+00 0.000000000000000000e+00 0.000000000000000000e+00 1.449045132687791989e-319 0.000000000000000000e+00
1.350000000000000000e+01 4.276555634271695938e-01 -1.560879741904730000e+00 -1.171076642065980739e-03 1.161619134717298829e+00 1.736166821387511924e-02 1.450626142754483978e-319 0.000000000000000000e+00 0.000000000000000000e+00 5.301594284147636352e-310 0.000000000000000000e+00 0.000000000000000000e+00 0.000000000000000000e+00 0.000000000000000000e+00 0.000000000000000000e+00 0.000000000000000000e+00 0.000000000000000000e+00 0.000000000000000000e+00 2.316778106506322903e+21 3.693321816617799352e+123 7.467378476786003478e-315 0.000000000000000000e+00 0.000000000000000000e+00 0.000000000000000000e+00 0.000000000000000000e+00 0.000000000000000000e+00 3.593585334221939941e+106 3.974307665061650848e+143 5.605585686229214042e-315 0.000000000000000000e+00 0.000000000000000000e+00 0.000000000000000000e+00 0.000000000000000000e+00 5.513793863244163584e-310 0.000000000000000000e+00 0.000000000000000000e+00 0.000000000000000000e+00 0.000000000000000000e+00 0.000000000000000000e+00 0.000000000000000000e+00 0.000000000000000000e+00 6.253309396395560985e-310 6.098236483895225501e+181 1.445586673166903264e-319 0.000000000000000000e+00 0.000000000000000000e+00 0.000000000000000000e+00 0.000000000000000000e+00 8.962531050707815198e-315 6.248004406918147805e-310 5.453529182780749850e-310 0.000000000000000000e+00 0.000000000000000000e+00 0.000000000000000000e+00 0.000000000000000000e+00 0.000000000000000000e+00 0.000000000000000000e+00 6.237394427963321443e-310 5.443639275847348636e-310 0.000000000000000000e+00 7.639521589971105195e-315 0.000000000000000000e+00 0.000000000000000000e+00 0.000000000000000000e+00 0.000000000000000000e+00 0.000000000000000000e+00 5.873566230485540740e-315 0.000000000000000000e+00 0.000000000000000000e+00 0.000000000000000000e+00 0.000000000000000000e+00 0.000000000000000000e+00 0.000000000000000000e+00 5.864347567911626570e-310 0.000000000000000000e+00 4.386377499504314403e-310 3.316266005106555031e-315 0.000000000000000000e+00 0.000000000000000000e+00 0.000000000000000000e+00 0.000000000000000000e+00 0.000000000000000000e+00 0.000000000000000000e+00 0.000000000000000000e+00 0.000000000000000000e+00 0.000000000000000000e+00 0.000000000000000000e+00 0.000000000000000000e+00 8.411439004165015290e-315 0.000000000000000000e+00 0.000000000000000000e+00 0.000000000000000000e+00 0.000000000000000000e+00 0.000000000000000000e+00 0.000000000000000000e+00 0.000000000000000000e+00
1.375000000000000000e+01 4.544944340797391624e-01 -1.545698821365143694e+00 -1.118147456786937333e-01 1.163463584454856203e+00 1.575868330323981770e-01 0.000000000000000000e+00 0.000000000000000000e+00 0.000000000000000000e+00 0.000000000000000000e+00 0.000000000000000000e+00 0.000000000000000000e+00 0.000000000000000000e+00 0.000000000000000000e+00 0.000000000000000000e+00 0.000000000000000000e+00 0.000000000000000000e+00 0.000000000000000000e+00 0.000000000000000000e+00 0.000000000000000000e+00 0.000000000000000000e+00 0.000000000000000000e+00 0.000000000000000000e+00 0.000000000000000000e+00 0.000000000000000000e+00 0.000000000000000000e+00 0.000000000000000000e+00 0.000000000000000000e+00 0.000000000000000000e+00 0.000000000000000000e+00 0.000000000000000000e+00 0.000000000000000000e+00 0.000000000000000000e+00 0.000000000000000000e+00 0.000000000000000000e+00 0.000000000000000000e+00 0.000000000000000000e+00 0.000000000000000000e+00 0.000000000000000000e+00 0.000000000000000000e+00 0.000000000000000000e+00 0.000000000000000000e+00 2.291797384279403033e+145 5.935930835377204007e+175 4.136854295434649872e-315 0.000000000000000000e+00 0.000000000000000000e+00 0.000000000000000000e+00 0.000000000000000000e+00 0.000000000000000000e+00 0.000000000000000000e+00 0.000000000000000000e+00 0.000000000000000000e+00 0.000000000000000000e+00 0.000000000000000000e+00 0.000000000000000000e+00 0.000000000000000000e+00 0.000000000000000000e+00 0.000000000000000000e+00 0.000000000000000000e+00 0.000000000000000000e+00 0.000000000000000000e+00 0.000000000000000000e+00 0.000000000000000000e+00 0.000000000000000000e+00 0.000000000000000000e+00 0.000000000000000000e+00 0.000000000000000000e+00 0.000000000000000000e+00 0.000000000000000000e+00 0.000000000000000000e+00 0.000000000000000000e+00 0.000000000000000000e+00 0.000000000000000000e+00 0.000000000000000000e+00 0.000000000000000000e+00 0.000000000000000000e+00 0.000000000000000000e+00 0.000000000000000000e+00 0.000000000000000000e+00 0.000000000000000000e+00 0.000000000000000000e+00 0.000000000000000000e+00 0.000000000000000000e+00 0.000000000000000000e+00 0.000000000000000000e+00 0.000000000000000000e+00 0.000000000000000000e+00 0.000000000000000000e+00 0.000000000000000000e+00 0.000000000000000000e+00 0.000000000000000000e+00 0.000000000000000000e+00 0.000000000000000000e+00 5.464775760472865793e-310 0.000000000000000000e+00
1.400000000000000000e+01 4.817026755645962277e-01 -1.526682890247708979e+00 -2.191465702863087117e-01 1.151619580041961299e+00 2.872640801405835775e-01 0.000000000000000000e+00 0.000000000000000000e+00 0.000000000000000000e+00 0.000000000000000000e+00 0.000000000000000000e+00 0.000000000000000000e+00 0.000000000000000000e+00 0.000000000000000000e+00 0.000000000000000000e+00 0.000000000000000000e+00 0.000000000000000000e+00 0.000000000000000000e+00 0.000000000000000000e+00 0.000000000000000000e+00 0.000000000000000000e+00 0.000000000000000000e+00 0.000000000000000000e+00 0.000000000000000000e+00 0.000000000000000000e+00 0.000000000000000000e+00 9.026340172349994928e+125 1.148850846274650589e-319 0.000000000000000000e+00 0.000000000000000000e+00 0.000000000000000000e+00 0.000000000000000000e+00 0.000000000000000000e+00 0.000000000000000000e+00 0.000000000000000000e+00 0.000000000000000000e+00 0.000000000000000000e+00 0.000000000000000000e+00 0.000000000000000000e+00 0.000000000000000000e+00 0.000000000000000000e+00 0.000000000000000000e+00 0.000000000000000000e+00 0.000000000000000000e+00 0.000000000000000000e+00 0.000000000000000000e+00 0.000000000000000000e+00 0.000000000000000000e+00 0.000000000000000000e+00 0.000000000000000000e+00 0.000000000000000000e+00 0.000000000000000000e+00 0.000000000000000000e+00 0.000000000000000000e+00 0.000000000000000000e+00 0.000000000000000000e+00 0.000000000000000000e+00 0.000000000000000000e+00 0.000000000000000000e+00 0.000000000000000000e+00 0.000000000000000000e+00 0.000000000000000000e+00 1.275479871303762078e-319 0.000000000000000000e+00 0.000000000000000000e+00 0.000000000000000000e+00 0.000000000000000000e+00 0.000000000000000000e+00 0.000000000000000000e+00 0.000000000000000000e+00 1.449292165510712613e-319 0.000000000000000000e+00 0.000000000000000000e+00 0.000000000000000000e+00 0.000000000000000000e+00 0.000000000000000000e+00 0.000000000000000000e+00 0.000000000000000000e+00 0.000000000000000000e+00 0.000000000000000000e+00 0.000000000000000000e+00 5.491300707859931697e-310 0.000000000000000000e+00 0.000000000000000000e+00 0.000000000000000000e+00 0.000000000000000000e+00 0.000000000000000000e+00 0.000000000000000000e+00 0.000000000000000000e+00 0.000000000000000000e+00 0.000000000000000000e+00 0.000000000000000000e+00 0.000000000000000000e+00 0.000000000000000000e+00 0.000000000000000000e+00 0.000000000000000000e+00
1.425000000000000000e+01 5.094008828375444775e-01 -1.503711613631336430e+00 -3.221890106322608527e-01 1.124993872712432452e+00 3.996985071504294829e-01 0.000000000000000000e+00 0.000000000000000000e+00 0.000000000000000000e+00 0.000000000000000000e+00 0.000000000000000000e+00 0.000000000000000000e+00 0.000000000000000000e+00 0.000000000000000000e+00 0.000000000000000000e+00 0.000000000000000000e+00 0.000000000000000000e+00 0.000000000000000000e+00 0.000000000000000000e+00 0.000000000000000000e+00 0.000000000000000000e+00 0.000000000000000000e+00 0.000000000000000000e+00 0.000000000000000000e+00 0.000000000000000000e+00 0.000000000000000000e+00 0.000000000000000000e+00 0.000000000000000000e+00 0.000000000000000000e+00 0.000000000000000000e+00 0.000000000000000000e+00 0.000000000000000000e+00 0.000000000000000000e+00 0.000000000000000000e+00 0.000000000000000000e+00 0.000000000000000000e+00 0.000000000000000000e+00 0.000000000000000000e+00 0.000000000000000000e+00 0.000000000000000000e+00 0.000000000000000000e+00 0.000000000000000000e+00 0.000000000000000000e+00 0.000000000000000000e+00 0.000000000000000000e+00 0.000000000000000000e+00 0.000000000000000000e+00 0.000000000000000000e+00 0.000000000000000000e+00 0.000000000000000000e+00 0.000000000000000000e+00 0.000000000000000000e+00 0.000000000000000000e+00 0.000000000000000000e+00 0.000000000000000000e+00 0.000000000000000000e+00 0.000000000000000000e+00 0.000000000000000000e+00 0.000000000000000000e+00 0.000000000000000000e+00 0.000000000000000000e+00 0.000000000000000000e+00 0.000000000000000000e+00 0.000000000000000000e+00 0.000000000000000000e+00 0.000000000000000000e+00 0.000000000000000000e+00 0.000000000000000000e+00 0.000000000000000000e+00 0.000000000000000000e+00 0.000000000000000000e+00 0.000000000000000000e+00 0.000000000000000000e+00 0.000000000000000000e+00 0.000000000000000000e+00 0.000000000000000000e+00 0.000000000000000000e+00 0.000000000000000000e+00 0.000000000000000000e+00 0.000000000000000000e+00 0.000000000000000000e+00 0.000000000000000000e+00 0.000000000000000000e+00 0.000000000000000000e+00 0.000000000000000000e+00 0.000000000000000000e+00 0.000000000000000000e+00 0.000000000000000000e+00 0.000000000000000000e+00 0.000000000000000000e+00 0.000000000000000000e+00 0.000000000000000000e+00 0.000000000000000000e+00 0.000000000000000000e+00 0.000000000000000000e+00 0.000000000000000000e+00
1.450000000000000000e+01 5.373563457286725242e-01 -1.477223886290490951e+00 -4.211248917130668290e-01 1.086398309128759454e+00 5.024388982393521719e-01 0.000000000000000000e+00 0.000000000000000000e+00 0.000000000000000000e+00 0.000000000000000000e+00 3.611429656321205568e+126 1.068035722186147018e-306 6.730964432157299940e-315 0.000000000000000000e+00 0.000000000000000000e+00 0.000000000000000000e+00 0.000000000000000000e+00 0.000000000000000000e+00 0.000000000000000000e+00 0.000000000000000000e+00 0.000000000000000000e+00 0.000000000000000000e+00 0.000000000000000000e+00 0.000000000000000000e+00 1.289906588162326478e-319 0.000000000000000000e+00 0.000000000000000000e+00 0.000000000000000000e+00 0.000000000000000000e+00 0.000000000000000000e+00 0.000000000000000000e+00 0.000000000000000000e+00 0.000000000000000000e+00 0.000000000000000000e+00 0.000000000000000000e+00 0.000000000000000000e+00 0.000000000000000000e+00 0.000000000000000000e+00 0.000000000000000000e+00 0.000000000000000000e+00 0.000000000000000000e+00 0.000000000000000000e+00 0.000000000000000000e+00 0.000000000000000000e+00 0.000000000000000000e+00 0.000000000000000000e+00 0.000000000000000000e+00 0.000000000000000000e+00 0.000000000000000000e+00 0.000000000000000000e+00 0.000000000000000000e+00 0.000000000000000000e+00 0.000000000000000000e+00 0.000000000000000000e+00 0.000000000000000000e+00 0.000000000000000000e+00 0.000000000000000000e+00 0.000000000000000000e+00 2.311550410955104002e+247 0.000000000000000000e+00 0.000000000000000000e+00 0.000000000000000000e+00 6.229543044989994626e-310 0.000000000000000000e+00 0.000000000000000000e+00 0.000000000000000000e+00 0.000000000000000000e+00 0.000000000000000000e+00 0.000000000000000000e+00 0.000000000000000000e+00 0.000000000000000000e+00 0.000000000000000000e+00 0.000000000000000000e+00 0.000000000000000000e+00 0.000000000000000000e+00 0.000000000000000000e+00 0.000000000000000000e+00 0.000000000000000000e+00 0.000000000000000000e+00 0.000000000000000000e+00 0.000000000000000000e+00 0.000000000000000000e+00 0.000000000000000000e+00 0.000000000000000000e+00 0.000000000000000000e+00 0.000000000000000000e+00 0.000000000000000000e+00 0.000000000000000000e+00 0.000000000000000000e+00 3.374185345907397287e+162 0.000000000000000000e+00 0.000000000000000000e+00 0.000000000000000000e+00 0.000000000000000000e+00 0.000000000000000000e+00 0.000000000000000000e+00
1.475000000000000000e+01 5.652880006452444261e-01 -1.447676016685935485e+00 -5.159440820030404273e-01 1.039073175700032436e+00 6.037345015396042847e-01 0.000000000000000000e+00 0.000000000000000000e+00 0.000000000000000000e+00 0.000000000000000000e+00 0.000000000000000000e+00 0.000000000000000000e+00 0.000000000000000000e+00 0.000000000000000000e+00 0.000000000000000000e+00 0.000000000000000000e+00 0.000000000000000000e+00 0.000000000000000000e+00 0.000000000000000000e+00 0.000000000000000000e+00 0.000000000000000000e+00 0.000000000000000000e+00 0.000000000000000000e+00 0.000000000000000000e+00 0.000000000000000000e+00 0.000000000000000000e+00 0.000000000000000000e+00 0.000000000000000000e+00 0.000000000000000000e+00 0.000000000000000000e+00 0.000000000000000000e+00 0.000000000000000000e+00 0.000000000000000000e+00 0.000000000000000000e+00 0.000000000000000000e+00 0.000000000000000000e+00 0.000000000000000000e+00 0.000000000000000000e+00 0.000000000000000000e+00 0.000000000000000000e+00 0.000000000000000000e+00 0.000000000000000000e+00 0.000000000000000000e+00 0.000000000000000000e+00 0.000000000000000000e+00 0.000000000000000000e+00 0.000000000000000000e+00 0.000000000000000000e+00 0.000000000000000000e+00 0.000000000000000000e+00 0.000000000000000000e+00 0.000000000000000000e+00 0.000000000000000000e+00 0.000000000000000000e+00 0.000000000000000000e+00 0.000000000000000000e+00 0.000000000000000000e+00 0.000000000000000000e+00 0.000000000000000000e+00 0.000000000000000000e+00 0.000000000000000000e+00 0.000000000000000000e+00 0.000000000000000000e+00 0.000000000000000000e+00 0.000000000000000000e+00 0.000000000000000000e+00 0.000000000000000000e+00 0.000000000000000000e+00 0.000000000000000000e+00 0.000000000000000000e+00 0.000000000000000000e+00 8.097361868356251534e-315 0.000000000000000000e+00 0.000000000000000000e+00 0.000000000000000000e+00 0.000000000000000000e+00 0.000000000000000000e+00 0.000000000000000000e+00 0.000000000000000000e+00 0.000000000000000000e+00 0.000000000000000000e+00 0.000000000000000000e+00 5.398696553451835659e+162 0.000000000000000000e+00 0.000000000000000000e+00 0.000000000000000000e+00 0.000000000000000000e+00 0.000000000000000000e+00 0.000000000000000000e+00 0.000000000000000000e+00 0.000000000000000000e+00 0.000000000000000000e+00 0.000000000000000000e+00 0.000000000000000000e+00 0.000000000000000000e+00 0.000000000000000000e+00
1.500000000000000000e+01 5.932941614040658784e-01 -1.415163072924447984e+00 -6.057964605660642876e-01 9.826262554073631472e-01 6.953455555003543731e-01 0.000000000000000000e+00 0.000000000000000000e+00 0.000000000000000000e+00 0.000000000000000000e+00 0.000000000000000000e+00 0.000000000000000000e+00 0.000000000000000000e+00 0.000000000000000000e+00 0.000000000000000000e+00 0.000000000000000000e+00 0.000000000000000000e+00 0.000000000000000000e+00 0.000000000000000000e+00 0.000000000000000000e+00 0.000000000000000000e+00 0.000000000000000000e+00 0.000000000000000000e+00 0.000000000000000000e+00 0.000000000000000000e+00 0.000000000000000000e+00 0.000000000000000000e+00 0.000000000000000000e+00 0.000000000000000000e+00 0.000000000000000000e+00 0.000000000000000000e+00 0.000000000000000000e+00 0.000000000000000000e+00 0.000000000000000000e+00 0.000000000000000000e+00 0.000000000000000000e+00 0.000000000000000000e+00 0.000000000000000000e+00 0.000000000000000000e+00 0.000000000000000000e+00 0.000000000000000000e+00 0.000000000000000000e+00 0.000000000000000000e+00 0.000000000000000000e+00 0.000000000000000000e+00 0.000000000000000000e+00 0.000000000000000000e+00 0.000000000000000000e+00 0.000000000000000000e+00 0.000000000000000000e+00 0.000000000000000000e+00 0.000000000000000000e+00 0.000000000000000000e+00 0.000000000000000000e+00 0.000000000000000000e+00 0.000000000000000000e+00 0.000000000000000000e+00 0.000000000000000000e+00 0.000000000000000000e+00 0.000000000000000000e+00 0.000000000000000000e+00 0.000000000000000000e+00 0.000000000000000000e+00 0.000000000000000000e+00 0.000000000000000000e+00 0.000000000000000000e+00 0.000000000000000000e+00 0.000000000000000000e+00 0.000000000000000000e+00 0.000000000000000000e+00 0.000000000000000000e+00 0.000000000000000000e+00 0.000000000000000000e+00 0.000000000000000000e+00 0.000000000000000000e+00 0.000000000000000000e+00 0.000000000000000000e+00 0.000000000000000000e+00 0.000000000000000000e+00 0.000000000000000000e+00 0.000000000000000000e+00 0.000000000000000000e+00 0.000000000000000000e+00 0.000000000000000000e+00 0.000000000000000000e+00 0.000000000000000000e+00 0.000000000000000000e+00 0.000000000000000000e+00 0.000000000000000000e+00 0.000000000000000000e+00 0.000000000000000000e+00 0.000000000000000000e+00 0.000000000000000000e+00 0.000000000000000000e+00 0.000000000000000000e+00 0.000000000000000000e+00
1.525000000000000000e+01 6.213559628186111627e-01 -1.379728507412676164e+00 -6.902140192607402192e-01 9.173354623975125133e-01 7.759668948879647754e-01 0.000000000000000000e+00 0.000000000000000000e+00 0.000000000000000000e+00 0.000000000000000000e+00 0.000000000000000000e+00 0.000000000000000000e+00 0.000000000000000000e+00 0.000000000000000000e+00 0.000000000000000000e+00 0.000000000000000000e+00 0.000000000000000000e+00 0.000000000000000000e+00 0.000000000000000000e+00 0.000000000000000000e+00 0.000000000000000000e+00 0.000000000000000000e+00 0.000000000000000000e+00 0.000000000000000000e+00 0.000000000000000000e+00 0.000000000000000000e+00 0.000000000000000000e+00 0.000000000000000000e+00 0.000000000000000000e+00 0.000000000000000000e+00 1.452009526562839469e-319 0.000000000000000000e+00 0.000000000000000000e+00 0.000000000000000000e+00 0.000000000000000000e+00 0.000000000000000000e+00 0.000000000000000000e+00 0.000000000000000000e+00 0.000000000000000000e+00 0.000000000000000000e+00 0.000000000000000000e+00 0.000000000000000000e+00 0.000000000000000000e+00 0.000000000000000000e+00 0.000000000000000000e+00 0.000000000000000000e+00 0.000000000000000000e+00 0.000000000000000000e+00 0.000000000000000000e+00 5.307960271520532169e-310 0.000000000000000000e+00 0.000000000000000000e+00 0.000000000000000000e+00 0.000000000000000000e+00 0.000000000000000000e+00 0.000000000000000000e+00 0.000000000000000000e+00 0.000000000000000000e+00 0.000000000000000000e+00 0.000000000000000000e+00 0.000000000000000000e+00 0.000000000000000000e+00 0.000000000000000000e+00 0.000000000000000000e+00 0.000000000000000000e+00 0.000000000000000000e+00 0.000000000000000000e+00 0.000000000000000000e+00 0.000000000000000000e+00 0.000000000000000000e+00 0.000000000000000000e+00 0.000000000000000000e+00 0.000000000000000000e+00 0.000000000000000000e+00 0.000000000000000000e+00 0.000000000000000000e+00 0.000000000000000000e+00 0.000000000000000000e+00 0.000000000000000000e+00 0.000000000000000000e+00 8.098980822664544131e-315 0.000000000000000000e+00 0.000000000000000000e+00 0.000000000000000000e+00 0.000000000000000000e+00 0.000000000000000000e+00 0.000000000000000000e+00 0.000000000000000000e+00 0.000000000000000000e+00 0.000000000000000000e+00 0.000000000000000000e+00 0.000000000000000000e+00 0.000000000000000000e+00 0.000000000000000000e+00 0.000000000000000000e+00 0.000000000000000000e+00
1.550000000000000000e+01 6.496505158092478194e-01 -1.341316694429140144e+00 -7.687452554593486864e-01 8.423098592473456936e-01 8.361957162267515953e-01 0.000000000000000000e+00 0.000000000000000000e+00 0.000000000000000000e+00 0.000000000000000000e+00 0.000000000000000000e+00 0.000000000000000000e+00 0.000000000000000000e+00 0.000000000000000000e+00 0.000000000000000000e+00 0.000000000000000000e+00 0.000000000000000000e+00 0.000000000000000000e+00 0.000000000000000000e+00 0.000000000000000000e+00 0.000000000000000000e+00 0.000000000000000000e+00 0.000000000000000000e+00 0.000000000000000000e+00 0.000000000000000000e+00 0.000000000000000000e+00 0.000000000000000000e+00 0.000000000000000000e+00 0.000000000000000000e+00 0.000000000000000000e+00 0.000000000000000000e+00 0.000000000000000000e+00 0.000000000000000000e+00 0.000000000000000000e+00 0.000000000000000000e+00 0.000000000000000000e+00 0.000000000000000000e+00 0.000000000000000000e+00 0.000000000000000000e+00 0.000000000000000000e+00 0.000000000000000000e+00 0.000000000000000000e+00 0.000000000000000000e+00 0.000000000000000000e+00 0.000000000000000000e+00 0.000000000000000000e+00 0.000000000000000000e+00 0.000000000000000000e+00 0.000000000000000000e+00 0.000000000000000000e+00 0.000000000000000000e+00 0.000000000000000000e+00 0.000000000000000000e+00 0.000000000000000000e+00 0.000000000000000000e+00 0.000000000000000000e+00 0.000000000000000000e+00 0.000000000000000000e+00 0.000000000000000000e+00 0.000000000000000000e+00 0.000000000000000000e+00 0.000000000000000000e+00 0.000000000000000000e+00 0.000000000000000000e+00 0.000000000000000000e+00 0.000000000000000000e+00 0.000000000000000000e+00 0.000000000000000000e+00 0.000000000000000000e+00 0.000000000000000000e+00 0.000000000000000000e+00 0.000000000000000000e+00 0.000000000000000000e+00 0.000000000000000000e+00 0.000000000000000000e+00 0.000000000000000000e+00 0.000000000000000000e+00 0.000000000000000000e+00 0.000000000000000000e+00 0.000000000000000000e+00 0.000000000000000000e+00 0.000000000000000000e+00 0.000000000000000000e+00 0.000000000000000000e+00 0.000000000000000000e+00 0.000000000000000000e+00 0.000000000000000000e+00 0.000000000000000000e+00 0.000000000000000000e+00 0.000000000000000000e+00 0.000000000000000000e+00 0.000000000000000000e+00 0.000000000000000000e+00 0.000000000000000000e+00 0.000000000000000000e+00 0.000000000000000000e+00
1.575000000000000000e+01 6.778730550578982994e-01 -1.300400320681265764e+00 -8.410302844244018639e-01 7.604943655898659394e-01 8.820256795528040872e-01 0.000000000000000000e+00 0.000000000000000000e+00 0.000000000000000000e+00 0.000000000000000000e+00 0.000000000000000000e+00 0.000000000000000000e+00 0.000000000000000000e+00 0.000000000000000000e+00 0.000000000000000000e+00 0.000000000000000000e+00 0.000000000000000000e+00 0.000000000000000000e+00 0.000000000000000000e+00 0.000000000000000000e+00 0.000000000000000000e+00 0.000000000000000000e+00 0.000000000000000000e+00 0.000000000000000000e+00 0.000000000000000000e+00 0.000000000000000000e+00 0.000000000000000000e+00 0.000000000000000000e+00 0.000000000000000000e+00 0.000000000000000000e+00 0.000000000000000000e+00 0.000000000000000000e+00 0.000000000000000000e+00 0.000000000000000000e+00 0.000000000000000000e+00 0.000000000000000000e+00 0.000000000000000000e+00 0.000000000000000000e+00 0.000000000000000000e+00 0.000000000000000000e+00 0.000000000000000000e+00 1.000443651010411928e+80 0.000000000000000000e+00 0.000000000000000000e+00 0.000000000000000000e+00 0.000000000000000000e+00 0.000000000000000000e+00 0.000000000000000000e+00 0.000000000000000000e+00 0.000000000000000000e+00 0.000000000000000000e+00 0.000000000000000000e+00 0.000000000000000000e+00 0.000000000000000000e+00 0.000000000000000000e+00 0.000000000000000000e+00 0.000000000000000000e+00 0.000000000000000000e+00 0.000000000000000000e+00 0.000000000000000000e+00 0.000000000000000000e+00 0.000000000000000000e+00 0.000000000000000000e+00 0.000000000000000000e+00 0.000000000000000000e+00 0.000000000000000000e+00 0.000000000000000000e+00 0.000000000000000000e+00 0.000000000000000000e+00 0.000000000000000000e+00 0.000000000000000000e+00 0.000000000000000000e+00 0.000000000000000000e+00 0.000000000000000000e+00 0.000000000000000000e+00 0.000000000000000000e+00 0.000000000000000000e+00 0.000000000000000000e+00 0.000000000000000000e+00 0.000000000000000000e+00 0.000000000000000000e+00 0.000000000000000000e+00 0.000000000000000000e+00 0.000000000000000000e+00 0.000000000000000000e+00 0.000000000000000000e+00 0.000000000000000000e+00 0.000000000000000000e+00 0.000000000000000000e+00 0.000000000000000000e+00 0.000000000000000000e+00 0.000000000000000000e+00 0.000000000000000000e+00 0.000000000000000000e+00 1.365152786023948326e-319 0.000000000000000000e+00
1.600000000000000000e+01 7.057730122615324397e-01 -1.257464717621493699e+00 -9.075407104846461293e-01 6.745711378223169241e-01 9.197753187176050949e-01 0.000000000000000000e+00 0.000000000000000000e+00 0.000000000000000000e+00 0.000000000000000000e+00 0.000000000000000000e+00 0.000000000000000000e+00 0.000000000000000000e+00 0.000000000000000000e+00 0.000000000000000000e+00 0.000000000000000000e+00 0.000000000000000000e+00 0.000000000000000000e+00 0.000000000000000000e+00 0.000000000000000000e+00 0.000000000000000000e+00 0.000000000000000000e+00 0.000000000000000000e+00 0.000000000000000000e+00 0.000000000000000000e+00 0.000000000000000000e+00 0.000000000000000000e+00 0.000000000000000000e+00 0.000000000000000000e+00 0.000000000000000000e+00 0.000000000000000000e+00 0.000000000000000000e+00 0.000000000000000000e+00 0.000000000000000000e+00 0.000000000000000000e+00 0.000000000000000000e+00 0.000000000000000000e+00 0.000000000000000000e+00 0.000000000000000000e+00 0.000000000000000000e+00 0.000000000000000000e+00 0.000000000000000000e+00 0.000000000000000000e+00 0.000000000000000000e+00 0.000000000000000000e+00 0.000000000000000000e+00 0.000000000000000000e+00 0.000000000000000000e+00 0.000000000000000000e+00 0.000000000000000000e+00 0.000000000000000000e+00 0.000000000000000000e+00 0.000000000000000000e+00 0.000000000000000000e+00 0.000000000000000000e+00 0.000000000000000000e+00 0.000000000000000000e+00 0.000000000000000000e+00 0.000000000000000000e+00 0.000000000000000000e+00 0.000000000000000000e+00 0.000000000000000000e+00 0.000000000000000000e+00 0.000000000000000000e+00 0.000000000000000000e+00 0.000000000000000000e+00 1.100627894695297117e+102 4.449894375503028680e+25 7.349505752494854109e-315 0.000000000000000000e+00 0.000000000000000000e+00 0.000000000000000000e+00 9.006566607893373828e-315 0.000000000000000000e+00 3.614607538290004742e+116 5.432732444302091868e+230 7.040654418191343637e-315 0.000000000000000000e+00 0.000000000000000000e+00 0.000000000000000000e+00 0.000000000000000000e+00 0.000000000000000000e+00 3.632394156076085729e+179 5.519009726304286156e+168 9.502732131542574838e-315 0.000000000000000000e+00 1.206705933402660559e-319 0.000000000000000000e+00 9.225773021236191418e-315 0.000000000000000000e+00 4.745601695129009577e+237 3.872662049244565845e+236 7.432117006701657254e-315 0.000000000000000000e+00 1.276319782901692198e-319 0.000000000000000000e+00
1.625000000000000000e+01 7.335294883542951005e-01 -1.212304127717904967e+00 -9.674457770895819042e-01 5.835003300597857434e-01 9.439732325301538607e-01 1.458481786523359798e-319 0.000000000000000000e+00 0.000000000000000000e+00 0.000000000000000000e+00 1.356074327196340085e+243 1.725257985526687806e+118 6.474019970570510001e-315 0.000000000000000000e+00 0.000000000000000000e+00 0.000000000000000000e+00 0.000000000000000000e+00 0.000000000000000000e+00 1.491159707781356198e+108 1.116985441454141235e+19 9.024824018271060206e-315 0.000000000000000000e+00 1.363374149698919839e-319 0.000000000000000000e+00 9.461816559385252013e-315 0.000000000000000000e+00 1.177924466983461565e+212 7.852488636661637699e+160 7.802848857626608003e-315 0.000000000000000000e+00 0.000000000000000000e+00 0.000000000000000000e+00 9.342985313156575417e-315 0.000000000000000000e+00 1.376897556428499738e+51 5.508908865645313892e+76 7.258846030578916223e-315 0.000000000000000000e+00 1.272219038041209851e-319 0.000000000000000000e+00 0.000000000000000000e+00 0.000000000000000000e+00 3.787267799275731177e+138 1.126816013739137154e+115 6.777711184455725327e-315 0.000000000000000000e+00 0.000000000000000000e+00 0.000000000000000000e+00 0.000000000000000000e+00 0.000000000000000000e+00 0.000000000000000000e+00 0.000000000000000000e+00 0.000000000000000000e+00 0.000000000000000000e+00 0.000000000000000000e+00 0.000000000000000000e+00 0.000000000000000000e+00 0.000000000000000000e+00 0.000000000000000000e+00 0.000000000000000000e+00 0.000000000000000000e+00 0.000000000000000000e+00 0.000000000000000000e+00 0.000000000000000000e+00 0.000000000000000000e+00 0.000000000000000000e+00 0.000000000000000000e+00 0.000000000000000000e+00 0.000000000000000000e+00 0.000000000000000000e+00 0.000000000000000000e+00 0.000000000000000000e+00 0.000000000000000000e+00 0.000000000000000000e+00 0.000000000000000000e+00 0.000000000000000000e+00 0.000000000000000000e+00 0.000000000000000000e+00 0.000000000000000000e+00 0.000000000000000000e+00 0.000000000000000000e+00 0.000000000000000000e+00 0.000000000000000000e+00 0.000000000000000000e+00 0.000000000000000000e+00 0.000000000000000000e+00 0.000000000000000000e+00 0.000000000000000000e+00 0.000000000000000000e+00 0.000000000000000000e+00 0.000000000000000000e+00 0.000000000000000000e+00 0.000000000000000000e+00 0.000000000000000000e+00 0.000000000000000000e+00 0.000000000000000000e+00
